{"layers":[{"nodes_in":2,"nodes_out":7,"outputs":[0.002639736351883183,0.9993405687405246,0.9989452068953318,0.9595212130449626,0.07293795848344073,0.00006858553618896253,0.05023454144690454],"inputs":[1.0,1.0],"weights":[[2.1264557094990266,-2.70723256636014,4.472893085188844,8.192006983496444,10.854926018368934,-11.66225577390677,2.5386107306201233],[-12.337671913369354,10.023641500545235,9.652554422243417,3.6321066400884665,-15.578408939607904,-3.7932138233392827,-14.47605163088343]],"biases":[4.2767831969479495,0.007064239547328672,-7.272092216617281,-8.658457257949344,2.1810716267142367,5.868109296944957,8.997928698596661],"activation":{"function":"Sigmoid"},"layer_type":"Dense"},{"nodes_in":7,"nodes_out":7,"outputs":[0.0004951277189067764,1.5156069833431934e-6,2.3900735499911893e-11,3.4124250433257286e-7,2.854225690701526e-6,0.00030437582862807654,0.9983871703493585],"inputs":[0.002639736351883183,0.9993405687405246,0.9989452068953318,0.9595212130449626,0.07293795848344073,0.00006858553618896253,0.05023454144690454],"weights":[[4.223764096191229,-2.486687530483321,14.339879353109206,13.480237725870863,-16.13655038484853,-0.42144797660239663,-0.348878413138477],[0.5526526892504259,3.12973554315824,-11.877013818634744,-7.743667206812015,-0.01864736088059775,-2.3093482034218034,-1.7274149847919114],[-4.560258625423353,-6.904000549975991,-5.032473678901872,-1.4496932034856127,-5.900226341874303,-0.2991837711670512,6.813686950313576],[-5.623661569286353,-3.9156207760752504,-2.1598620176849863,-2.1504555500934983,-5.753040130494501,-2.2808602437518055,5.753386682857613],[-10.308069657557732,-3.4447914685724745,0.790263203896986,5.038175093467406,4.391337055341642,-2.4934048520273056,15.152240180258428],[-7.159757621626071,15.668644973076246,3.0487690054366916,4.121601427639559,-4.488445735978901,11.992273114553456,6.573160871194951],[10.401314069428658,1.7868239488915063,0.9635939595675926,-5.595307584564619,8.846700943246192,-1.8111302102863431,-14.881418890547845]],"biases":[2.007668999839672,-5.706539945130863,-5.632439743071193,-3.7628029798986873,-2.0557062202538487,-3.0285804202357975,-4.529711739865152],"activation":{"function":"Sigmoid"},"layer_type":"Dense"},{"nodes_in":7,"nodes_out":1,"outputs":[0.001569806701527795],"inputs":[0.0004951277189067764,1.5156069833431934e-6,2.3900735499911893e-11,3.4124250433257286e-7,2.854225690701526e-6,0.00030437582862807654,0.9983871703493585],"weights":[[-18.028786776839357],[12.209756729029705],[-15.32353138241062],[17.656690274533833],[17.868380771456216],[-22.581589084538663],[-17.188875969736852]],"biases":[10.721645805332773],"activation":{"function":"Sigmoid"},"layer_type":"Dense"}],"learning_rate":0.02,"batch_size":2,"cost":0.009808719009504637,"print_progress":false}