{"layers":[{"nodes_in":2,"nodes_out":10,"outputs":[1.3347506282096931e-6,0.8060967370575353,0.996274390165699,0.003122503500133492,0.020472673969876367,0.9555437619011442,0.0002908796672393598,0.9998582566380663,0.999923028768196,0.0915152468502885],"inputs":[1.0,1.0],"weights":[[-17.677142723367815,-9.36029247188142,9.144478204190497,-2.3898265598725823,-9.95912926817217,-0.6106871577553473,2.5612678624680294,-0.08985319289271608,0.06702393379969647,-13.598276282605289],[-1.3594939729191144,4.971702432113984,3.8712964710739546,-16.675369974052984,1.7273979087730023,6.45646433489664,-15.509205084087474,8.898200252303686,9.648808296820366,-0.3179178479195485]],"biases":[5.50987195212942,5.813434406163014,-7.426982515824771,13.299203727586043,4.363752244326796,-2.778001906303571,4.8056272526454675,0.05300363302521244,-0.24383038595632264,11.6209216159168],"activation":{"function":"Sigmoid"},"layer_type":"Dense"},{"nodes_in":10,"nodes_out":10,"outputs":[3.8941701126236063e-7,1.666347531499734e-8,3.927068926293575e-7,6.469854902573016e-6,0.04901021228450219,0.8971699595367322,0.9922156230141413,0.9999754414758476,0.9999940595648765,0.9878877539830019],"inputs":[1.3347506282096931e-6,0.8060967370575353,0.996274390165699,0.003122503500133492,0.020472673969876367,0.9555437619011442,0.0002908796672393598,0.9998582566380663,0.999923028768196,0.0915152468502885],"weights":[[6.6591774188020665,-15.262813464735245,12.337295578907678,7.18911850836028,-12.287319660246606,0.770473923778771,6.212807357950251,0.751021609845782,4.418139352328622,0.6861483797638465],[-5.223370213206443,4.7829334637130225,0.7562454589196098,-3.0861981271486014,-6.837202862177216,-0.36025735867944075,0.3565368967788336,-1.5575683496861483,-2.6948189697985168,0.25574528240679006],[-2.3109316510533002,-1.344383004640731,0.8548460518468122,-10.955986696354728,-0.18227717644677388,0.01021129453193124,-2.3723906575033333,3.8152897686235376,11.40332614150588,0.6492721579385102],[3.232534344393294,17.557596643647226,-0.14715230653724862,-2.4375844812091594,15.023722051598567,-0.8360309086531457,-3.3471971776295875,-5.596168611552305,-3.7024418099715155,0.5138255357754459],[-0.15471042077059793,-4.290062218912825,-3.150137966378915,11.688230550069632,-4.234978247893041,0.9839263107706918,4.444517734402814,-2.831658863553076,-9.1243234485057,0.782570836910219],[-3.3156293154714693,-1.3913592240970107,-3.711732200239553,-1.0162857101316756,-5.004049856237186,1.1108745002470155,5.067464131299252,3.844489190568774,3.315161072794875,0.6727432149117724],[10.96862366758521,-3.6046097397270835,6.408677466253501,12.95720253385177,-9.235930851893709,0.018774354300767706,-9.069874853605258,-2.662706707017232,-7.662918660855326,0.3308411776668128],[-2.6212633092188526,-6.860778829761526,-6.57451385466181,-0.5642208136764988,4.197654363750703,0.19014653144368632,0.6247592899835633,1.4728353070088758,-0.06553850776589198,0.7285573867481323],[-2.730847653839324,-7.714637393830597,-7.4299385333979675,-0.5102474547504889,5.279661436224939,0.09222457072835347,1.0380949052548765,1.4986281877036578,-0.29484396627020126,0.6504264731912969],[0.30597642351606336,16.4187050228148,0.569559562843412,1.3075009339265244,-0.21623000707607845,-0.46071571166303205,5.706696777994017,-5.265908660538206,0.2350056671231436,0.8076312727845348]],"biases":[0.2358799561410359,-5.991312303029917,1.349148221841983,3.144934468461698,-1.9048744452441122,1.12719349597662,-0.1810583205647122,1.9823153640538933,0.21681089696110448,1.4350438370216558],"activation":{"function":"Sigmoid"},"layer_type":"Dense"},{"nodes_in":10,"nodes_out":1,"outputs":[0.003996044237998595],"inputs":[3.8941701126236063e-7,1.666347531499734e-8,3.927068926293575e-7,6.469854902573016e-6,0.04901021228450219,0.8971699595367322,0.9922156230141413,0.9999754414758476,0.9999940595648765,0.9878877539830019],"weights":[[-7.272784676578533],[28.793397565680007],[-16.19986728224663],[-11.135244913060838],[-19.822390982757792],[1.4649549799993637],[-6.680059715278005],[12.715372327467975],[-14.278972803303478],[1.1153069283506474]],"biases":[1.2289099285771528],"activation":{"function":"Sigmoid"},"layer_type":"Dense"}],"learning_rate":0.02,"batch_size":2,"cost":0.002308324307019521,"print_progress":false}