{"layers":[{"nodes_in":2,"nodes_out":8,"outputs":[0.455623808179645,0.9988336324125848,0.00015099587470702089,0.33609680153738286,1.9072483883147542e-8,0.9987046256922198,0.795603881976668,0.9641525372364437],"inputs":[1.0,1.0],"weights":[[14.777797519548242,10.896515735954123,-16.700664323243142,12.41726896824153,-11.693213098659355,11.74849008134732,8.240797561864944,18.57497896368543],[-6.204048977692307,-0.8082571890224655,5.232540786370943,-12.537029493405544,-18.336319609048047,5.720353394336437,-17.317671832296757,-11.597386595490065]],"biases":[-8.751721591830126,-3.335564609591874,2.670016502804336,-0.5609766099527607,12.254513551784434,-10.821184104876059,10.435915830615611,-3.685615643315297],"activation":{"function":"Sigmoid"},"layer_type":"Dense"},{"nodes_in":8,"nodes_out":8,"outputs":[0.9663483709033871,0.6026772235978379,0.00009261791471218525,0.000021304206241738505,5.650274564432241e-10,0.9999994288896237,0.9416736916248196,6.08062329510689e-9],"inputs":[0.455623808179645,0.9988336324125848,0.00015099587470702089,0.33609680153738286,1.9072483883147542e-8,0.9987046256922198,0.795603881976668,0.9641525372364437],"weights":[[0.751712947227361,0.7063206248076033,-5.370534187293706,-2.408765906806606,10.059095873946855,5.40831505009457,-7.76762893614539,-3.718222746776444],[-2.412096819389494,4.878287956396942,-6.648243327440099,-7.751613778266598,1.9932011273039847,3.1392878687557437,-1.6919091064981757,-5.71238367717874],[2.6102372926888973,-0.7509252327288987,2.148132796865916,15.4719532883236,-13.598511780119372,-5.951207074185052,-1.760947555729786,21.517841682113946],[-0.49525454344540554,0.7113189979121266,14.957016262911772,-3.8660152079639563,8.961005036857213,-4.788944022166425,-6.206159127811821,-1.0241536745479685],[18.170381200047853,-19.30812416747814,-15.394085533074927,-0.059466908029568194,-14.141722112941546,-12.559169648644353,2.5521314876283996,-16.784580012363246],[19.557119814647248,-9.58077344667564,-7.199001593751314,11.910910788071119,-27.713517673773442,2.575567026796869,16.675213990009063,-12.486573556162446],[-7.002958749734841,-11.146948454500633,1.0570888449660942,-9.399680907426578,3.561182196850679,5.189493771839983,-7.377358136425421,4.868353553916492],[3.1118184818562895,7.395731303934454,-0.5889825456811243,-4.291703070277587,-5.397227639666191,-0.9286930950785274,5.664637542678015,-1.4346994859317301]],"biases":[-11.37016550993388,6.28956504258913,1.6896887479860383,-0.8987046120799238,-0.829819585931309,4.580736693331509,-6.1489391937883875,-1.1969739570592566],"activation":{"function":"Sigmoid"},"layer_type":"Dense"},{"nodes_in":8,"nodes_out":1,"outputs":[0.004242439146790895],"inputs":[0.9663483709033871,0.6026772235978379,0.00009261791471218525,0.000021304206241738505,5.650274564432241e-10,0.9999994288896237,0.9416736916248196,6.08062329510689e-9],"weights":[[-24.762652822277957],[17.987019866415523],[-18.52274453251658],[-26.287748481470434],[13.41241052945188],[-12.60326658461918],[14.931111435579547],[10.195725425818791]],"biases":[6.175916648488872],"activation":{"function":"Sigmoid"},"layer_type":"Dense"}],"learning_rate":0.03,"batch_size":2,"cost":0.0019237980413815176,"print_progress":false}