{"layers":[{"activation":{"function":"ReLU"},"layer_type":"Convolutional","conv_params":{"kernel":5,"padding_type":"Valid","padding":0,"stride":1,"data":[[0.0,0.0,0.0,0.0,0.0,0.0,0.0,0.0,0.0,0.0,0.0,0.0,0.0,0.0,0.0,0.0,0.0,0.0,0.0,0.0,0.0,0.0,0.0,0.0,0.0,0.0,0.0,0.0],[0.0,0.0,0.0,0.0,0.0,0.0,0.0,0.0,0.0,0.0,0.0,0.0,0.0,0.0,0.0,0.0,0.0,0.0,0.0,0.0,0.0,0.0,0.0,0.0,0.0,0.0,0.0,0.0],[0.0,0.0,0.0,0.0,0.0,0.0,0.0,0.0,0.0,0.0,0.0,0.0,0.0,0.0,0.0,0.0,0.0,0.0,0.0,0.0,0.0,0.0,0.0,0.0,0.0,0.0,0.0,0.0],[0.0,0.0,0.0,0.0,0.0,0.0,0.0,0.0,0.0,0.0,0.0,0.0,0.0,0.0,0.0,0.0,0.0,0.0,0.0,0.0,0.0,0.0,0.0,0.0,0.0,0.0,0.0,0.0],[0.0,0.0,0.0,0.0,0.0,0.0,0.0,0.0,0.0,0.0,0.0,0.0,0.0,0.0,0.0,0.0,0.0,0.0,0.0,0.0,0.0,0.0,0.0,0.0,0.0,0.0,0.0,0.0],[0.0,0.0,0.0,0.0,0.0,0.0,0.0,0.0,0.0,0.0,0.0,0.0,0.0,0.0,0.0,0.0,6.0,75.0,0.0,96.0,183.0,177.0,93.0,18.0,0.0,0.0,0.0,0.0],[0.0,0.0,0.0,0.0,0.0,0.0,0.0,0.0,0.0,0.0,0.0,0.0,0.0,15.0,111.0,195.0,237.0,93.0,0.0,207.0,249.0,252.0,252.0,114.0,0.0,0.0,0.0,0.0],[0.0,0.0,0.0,0.0,0.0,0.0,0.0,0.0,0.0,0.0,18.0,48.0,105.0,195.0,246.0,183.0,24.0,0.0,0.0,81.0,243.0,252.0,249.0,90.0,0.0,0.0,0.0,0.0],[0.0,0.0,0.0,0.0,0.0,0.0,0.0,0.0,18.0,84.0,228.0,252.0,252.0,219.0,84.0,0.0,0.0,0.0,123.0,252.0,252.0,177.0,51.0,0.0,0.0,0.0,0.0,0.0],[0.0,0.0,0.0,0.0,0.0,0.0,0.0,0.0,132.0,252.0,252.0,216.0,117.0,3.0,0.0,0.0,60.0,201.0,252.0,240.0,129.0,6.0,0.0,0.0,0.0,0.0,0.0,0.0],[0.0,0.0,0.0,0.0,0.0,0.0,0.0,105.0,243.0,252.0,213.0,45.0,0.0,0.0,0.0,60.0,240.0,252.0,219.0,27.0,0.0,0.0,0.0,0.0,0.0,0.0,0.0,0.0],[0.0,0.0,0.0,0.0,0.0,0.0,42.0,246.0,252.0,207.0,48.0,0.0,0.0,0.0,30.0,240.0,252.0,219.0,27.0,0.0,0.0,0.0,0.0,0.0,0.0,0.0,0.0,0.0],[0.0,0.0,0.0,0.0,0.0,0.0,93.0,252.0,252.0,54.0,0.0,0.0,0.0,15.0,198.0,252.0,216.0,27.0,0.0,0.0,0.0,0.0,0.0,0.0,0.0,0.0,0.0,0.0],[0.0,0.0,0.0,0.0,0.0,0.0,27.0,219.0,252.0,231.0,144.0,39.0,42.0,204.0,252.0,204.0,9.0,0.0,0.0,0.0,0.0,0.0,0.0,0.0,0.0,0.0,0.0,0.0],[0.0,0.0,0.0,0.0,0.0,0.0,0.0,114.0,246.0,252.0,252.0,243.0,231.0,252.0,222.0,24.0,0.0,0.0,0.0,0.0,0.0,0.0,0.0,0.0,0.0,0.0,0.0,0.0],[0.0,0.0,0.0,0.0,0.0,0.0,0.0,0.0,36.0,84.0,168.0,243.0,252.0,252.0,252.0,207.0,114.0,9.0,0.0,0.0,0.0,0.0,0.0,0.0,0.0,0.0,0.0,0.0],[0.0,0.0,0.0,0.0,0.0,0.0,0.0,0.0,0.0,0.0,12.0,234.0,252.0,228.0,162.0,237.0,243.0,210.0,78.0,0.0,0.0,0.0,0.0,0.0,0.0,0.0,0.0,0.0],[0.0,0.0,0.0,0.0,0.0,0.0,0.0,0.0,0.0,0.0,99.0,252.0,252.0,99.0,0.0,0.0,36.0,225.0,252.0,129.0,6.0,0.0,0.0,0.0,0.0,0.0,0.0,0.0],[0.0,0.0,0.0,0.0,0.0,0.0,0.0,0.0,0.0,0.0,69.0,252.0,228.0,12.0,0.0,0.0,0.0,0.0,168.0,252.0,51.0,0.0,0.0,0.0,0.0,0.0,0.0,0.0],[0.0,0.0,0.0,0.0,0.0,0.0,0.0,0.0,0.0,0.0,96.0,252.0,252.0,18.0,0.0,0.0,0.0,0.0,81.0,252.0,198.0,0.0,0.0,0.0,0.0,0.0,0.0,0.0],[0.0,0.0,0.0,0.0,0.0,0.0,0.0,0.0,0.0,0.0,78.0,252.0,252.0,18.0,0.0,0.0,0.0,0.0,129.0,252.0,117.0,0.0,0.0,0.0,0.0,0.0,0.0,0.0],[0.0,0.0,0.0,0.0,0.0,0.0,0.0,0.0,0.0,0.0,3.0,213.0,252.0,78.0,0.0,0.0,0.0,0.0,183.0,243.0,63.0,0.0,0.0,0.0,0.0,0.0,0.0,0.0],[0.0,0.0,0.0,0.0,0.0,0.0,0.0,0.0,0.0,0.0,0.0,63.0,252.0,222.0,24.0,0.0,0.0,126.0,252.0,177.0,0.0,0.0,0.0,0.0,0.0,0.0,0.0,0.0],[0.0,0.0,0.0,0.0,0.0,0.0,0.0,0.0,0.0,0.0,0.0,0.0,87.0,237.0,222.0,117.0,177.0,252.0,216.0,27.0,0.0,0.0,0.0,0.0,0.0,0.0,0.0,0.0],[0.0,0.0,0.0,0.0,0.0,0.0,0.0,0.0,0.0,0.0,0.0,0.0,0.0,18.0,153.0,195.0,195.0,99.0,24.0,0.0,0.0,0.0,0.0,0.0,0.0,0.0,0.0,0.0],[0.0,0.0,0.0,0.0,0.0,0.0,0.0,0.0,0.0,0.0,0.0,0.0,0.0,0.0,0.0,0.0,0.0,0.0,0.0,0.0,0.0,0.0,0.0,0.0,0.0,0.0,0.0,0.0],[0.0,0.0,0.0,0.0,0.0,0.0,0.0,0.0,0.0,0.0,0.0,0.0,0.0,0.0,0.0,0.0,0.0,0.0,0.0,0.0,0.0,0.0,0.0,0.0,0.0,0.0,0.0,0.0],[0.0,0.0,0.0,0.0,0.0,0.0,0.0,0.0,0.0,0.0,0.0,0.0,0.0,0.0,0.0,0.0,0.0,0.0,0.0,0.0,0.0,0.0,0.0,0.0,0.0,0.0,0.0,0.0]],"weights":[[0.0030344364758301983,-0.07272234765484284,-0.18802502786801634,-0.11123988666233084,0.06446826795258806],[0.09645089076082247,-0.06906644527600093,-0.22759912059485515,-0.019538004740403056,-0.1317966890588554],[-0.10244960457651084,-0.1135105288703504,0.14382270906964412,-0.15716583452979443,-0.1736594684926835],[-0.028128335168762175,-0.1864350080611316,-0.1035386596818059,0.10874286464709015,0.06674276438436808],[-0.20578048188212034,-0.11275488784242671,-0.11102002324652277,-0.046413994538882924,0.16097132750468857]],"bias":-0.14946744751246058,"outputs":[[-0.03736686187811513,-0.03736686187811513,-0.03736686187811513,-0.03736686187811513,-0.03736686187811513,-0.03736686187811513,-0.03736686187811513,-0.03736686187811513,-0.03736686187811513,-0.03736686187811513,-0.03736686187811513,-0.03736686187811513,-0.03736686187811513,-0.03736686187811513,-0.03736686187811513,-0.03736686187811513,-0.03736686187811513,-0.03736686187811513,-0.03736686187811513,-0.03736686187811513,-0.03736686187811513,-0.03736686187811513,-0.03736686187811513,-0.03736686187811513],[-0.03736686187811513,-0.03736686187811513,-0.03736686187811513,-0.03736686187811513,-0.03736686187811513,-0.03736686187811513,-0.03736686187811513,-0.03736686187811513,-0.03736686187811513,-0.03736686187811513,-0.03736686187811513,-0.03736686187811513,-0.027708582227833817,8.057679407806832,-0.0788385591770687,2.7135301820948214,11.574023790339009,-0.09829980592922428,-0.2812276325024439,-0.6519531863532543,-0.7251244358397559,-0.5264439646872991,-0.24903858984012384,-0.07440734861689678],[-0.03736686187811513,-0.03736686187811513,-0.03736686187811513,-0.03736686187811513,-0.03736686187811513,-0.03736686187811513,-0.03736686187811513,-0.03736686187811513,-0.03736686187811513,-0.01322116275241185,13.434921247125674,20.83546893308891,11.748700184023285,-0.31359709230693705,-0.7165928691710117,-0.5006729008553911,-0.24016856011238477,2.8163511354608737,-0.37243257217552933,-1.3956166740053226,-1.624767046977715,-1.2084474895732964,-0.7441919015193775,-0.27701971155410954],[-0.03736686187811513,-0.03736686187811513,-0.03736686187811513,-0.03736686187811513,-0.03736686187811513,-0.03736686187811513,-0.00839202292727119,3.154485630713645,8.939071043876995,16.4218456177888,15.077735528431369,-0.05530189662335527,-0.5758059416513074,-1.1632675138240147,-1.4248445880727232,-0.8311108851211502,-0.1419065873977588,-0.16971235930099257,-0.6015909653398256,-1.3906906394637386,-2.0995056780242853,-1.8563575691644765,-1.050369002090568,-0.27307652648818426],[-0.03736686187811513,-0.03736686187811513,-0.03736686187811513,-0.03736686187811513,-0.00839202292727119,8.949453420882435,28.269010282472532,20.0514519087304,-0.02992310944131223,-0.37648750846699425,-1.0802584650743108,-1.635226273304358,-1.9122316060978157,-1.754514031758604,-0.616127230204745,-0.7268507573425096,-1.0537940887789095,-0.9810208251337481,-2.1673282013359185,-2.671004094719903,-2.0290491724673014,-1.402137883134024,-0.6904536076503552,-0.1621137524102754],[-0.03736686187811513,-0.03736686187811513,-0.03736686187811513,-0.03736686187811513,18.712898801726002,38.265204836171996,29.839303253881187,-0.05129064427081208,-0.972234469806222,-1.8935994350077519,-2.236238365782185,-2.1983747656809967,-1.665068080531301,-0.8527932282963796,-0.8383010622314991,-0.6558332459056415,-1.0774306782861363,-2.8827924886936303,-3.7241793616394228,-3.196055033458605,-1.9293566649943514,-0.892516011037641,-0.2549188037457292,-0.019071291963987852],[-0.03736686187811513,-0.03736686187811513,-0.03736686187811513,13.165303200180785,36.19005143511338,27.64923961289151,-0.4198779404418249,-1.684801192450508,-2.342090487946704,-2.629500625381506,-2.327360471148754,-1.4619046734788703,-1.0077214432166104,-0.9845015877190043,-0.7421799516962001,-1.4407715334426192,-2.4763978166784297,-3.0089036286987643,-3.3032151051828675,-2.462930790880238,-1.7708944751194142,-0.8020012123085344,1.313006062648271,5.289819738907154],[-0.03736686187811513,-0.03736686187811513,3.024109567385407,40.92086286806744,23.088506999703146,-0.5771712774301221,-1.721020189033506,-2.6895829942930534,-3.114395646967219,-2.536997315657426,-1.5427566454333461,-1.0304248759861692,-0.6671005196420116,-0.5720060791242544,-1.5668886316543882,-2.447822737472275,-2.6899955180102335,-2.5867312632391197,-1.9257286830520832,-1.6394921644197493,-0.9157892512800561,-0.2506740394194918,-0.04607127365463702,-0.03463586904986796],[-0.03736686187811513,-0.03736686187811513,14.036843374267981,35.26326301325446,-0.20910200422918881,-1.3651650317454007,-2.489688298918248,-3.2958786772648883,-2.846493453489777,-1.9329260594775755,-1.001013166085109,-0.25789598102451256,-0.4341927709712655,-1.568983868498636,-2.367339661101385,-2.765542946099774,-2.4993636671880344,-1.961813135000875,-1.3348191711769894,-0.5014479566248219,-0.13405373915588223,-0.06329725317421617,-0.03581929927544173,-0.03736686187811513],[-0.03736686187811513,-0.03736686187811513,-0.0047708093413139805,-0.05964726930425759,-0.4369353606564517,-1.2326571607593941,-2.883347914831895,-3.397013572188322,-2.773601226252108,-1.3976697175571102,-0.26454139619884465,-0.3958481710984483,-1.5882159571495778,-2.271233140213609,-2.9470422940870824,-2.5352105116151007,-1.88317932080969,-1.0376775455632914,-0.28856227817410385,-0.1091358039775288,-0.037815779683584745,-0.03718479568956532,-0.03736686187811513,-0.03736686187811513],[-0.03736686187811513,-0.03736686187811513,-0.23620423059725068,-0.5268525435060974,-0.4517575610713411,-1.1705410934564136,-2.066508675556709,-2.8820036101561017,-2.38370958620367,-1.150152272503041,-0.9995896179783504,-2.04172179780951,-2.342421012851285,-2.947734738338074,-2.6252442835369574,-1.9444663482525806,-0.8792756826993395,-0.07483066354147022,-0.02431473935743251,-0.03654756402964098,-0.03736686187811513,-0.03736686187811513,-0.03736686187811513,-0.03736686187811513],[-0.03736686187811513,-0.03736686187811513,-0.17974916665578822,-0.62245593587366,-1.217437232846933,-1.5122299450715215,-1.9170619583578747,-1.3179515153774997,-0.9562116472536083,-1.5142649635851393,-2.1217745478755425,-2.2157411065742663,-2.9752171065964554,-3.21955738851193,-2.857675457939264,-1.4131950635990713,-0.3040209506919585,-0.04283498272682334,-0.03654756402964098,-0.03736686187811513,-0.03736686187811513,-0.03736686187811513,-0.03736686187811513,-0.03736686187811513],[-0.03736686187811513,-0.03736686187811513,-0.012996478728099201,-0.4702417256340226,-1.3488062149919247,-2.2601900749678605,-2.1091447527471057,-1.172381863352903,-0.959423274809747,-1.4334321592607142,-1.9977313967080674,-2.5358547776401235,-2.70320532374594,-3.1113509437142786,-2.231126656861441,-1.3827303048751116,-0.9140398391814827,-0.5591669386643754,-0.197875637746169,-0.03736686187811513,-0.03736686187811513,-0.03736686187811513,-0.03736686187811513,-0.03736686187811513],[-0.03736686187811513,-0.03736686187811513,-0.019960429530916368,-0.07646434998787173,-0.5782995250986726,-1.4422873217268952,-2.0583757074634175,-1.8635220610098155,-1.4681706691477883,-1.9333227780809252,-3.0744239387164924,-3.4509089850175285,-2.8617195373890114,-1.0796047615882745,-0.5381271220187467,-1.1951120900735341,-1.3624934883602595,-1.1442252076901178,-0.7299887843642148,-0.30958897677659597,-0.049713690791042354,-0.03736686187811513,-0.03736686187811513,-0.03736686187811513],[-0.03736686187811513,-0.03736686187811513,-0.03736686187811513,3.612696358783527,-0.05303520157099359,-0.48064838011245004,-0.8641360144238347,-1.1551850220814428,-1.8686049157949913,-2.752364509550144,-3.6295785841587533,-4.034779200864129,-3.1455601505890907,-1.3589783598265937,-0.11419713455507231,11.232110066146262,-1.0763928213633478,-1.4853837447650025,-1.1213481768334468,-0.6609103218720673,-0.14400260774812224,-0.03736686187811513,-0.03736686187811513,-0.03736686187811513],[-0.03736686187811513,-0.03736686187811513,-0.03736686187811513,-0.03736686187811513,-0.014158285415183443,-0.02325987599638027,-0.07734418121171525,-0.551363245253961,-1.0806808332902826,-2.549900181376403,-3.4450132288913564,-3.378147493070928,-2.551706394803664,-2.067997957209415,-1.6059037794955284,-0.18176107883826423,-0.02569499170984397,-1.2105465196266507,-1.598628083866895,-1.0841242345214415,-0.46530464321537296,-0.03736686187811513,-0.03736686187811513,-0.03736686187811513],[-0.03736686187811513,-0.03736686187811513,-0.03736686187811513,-0.03736686187811513,-0.03736686187811513,-0.03736686187811513,-0.09030373588937257,-0.1553667229356736,-0.9123060116487092,-2.1456723201359313,-3.0202579926248165,-2.7077044121075904,-1.3703853263200938,-0.9912948177043919,-1.333079475380094,-1.5443389484628507,-1.0492367713142716,-0.9240926418768791,-1.656606989327737,-1.3236673264748036,-0.3802863742027164,-0.03736686187811513,-0.03736686187811513,-0.03736686187811513],[-0.03736686187811513,-0.03736686187811513,-0.03736686187811513,-0.03736686187811513,-0.03736686187811513,-0.03736686187811513,-0.1743075857636915,-0.32465654746050165,-0.8788427308821802,-2.0066592973589503,-2.7760100317723793,-2.227570714861686,-0.8564488038386217,-0.10179422420306347,-0.17429249336885985,-0.9989485819564271,-1.931564567856056,-2.0828211722860797,-1.6949179361850832,-1.17300178712426,-0.35339691419622504,-0.03736686187811513,-0.03736686187811513,-0.03736686187811513],[-0.03736686187811513,-0.03736686187811513,-0.03736686187811513,-0.03736686187811513,-0.03736686187811513,-0.03736686187811513,-0.2528606809800926,-0.615921390542436,-0.8486827923429588,-1.4030819958271932,-2.3401747185346684,-1.9902580857156915,-1.0989858244389408,-0.341092569624056,16.008185115350567,-0.6608539497304643,-1.89612832900514,-2.590352222840867,-2.395808765675141,-0.9015214809732779,1.7566575920148937,-0.03736686187811513,-0.03736686187811513,-0.03736686187811513],[-0.03736686187811513,-0.03736686187811513,-0.03736686187811513,-0.03736686187811513,-0.03736686187811513,-0.03736686187811513,-0.08348852616431829,-0.661626119322419,-1.285951691190662,-1.080586162007931,-1.362626074270502,-1.5780778502394055,-1.1306231158240803,-0.6668776627214679,-0.7290316743287645,-1.5471425459744732,-2.271567588628622,-2.9137186623186113,-2.1548836880040194,-0.4372738822373843,1.6945613650989133,-0.03736686187811513,-0.03736686187811513,-0.03736686187811513],[-0.03736686187811513,-0.03736686187811513,-0.03736686187811513,-0.03736686187811513,-0.03736686187811513,-0.03736686187811513,0.8964486453137891,-0.3523924912221763,-1.1610325742478727,-1.884741032641143,-0.9910363237936994,-0.3271722455009896,-0.7468589312765567,-1.0332942008975723,-1.6597923054619823,-2.0097508897979037,-2.3440354009001685,-2.319807978625533,-1.190984426849282,-0.11287187528626108,2.6947489977924377,-0.03736686187811513,-0.03736686187811513,-0.03736686187811513],[-0.03736686187811513,-0.03736686187811513,-0.03736686187811513,-0.03736686187811513,-0.03736686187811513,-0.03736686187811513,-0.035432813839537496,1.3581438153948617,-0.6130088730678032,-1.6915864934633178,-1.956022977287629,-1.0161619554842245,-0.4312400209224329,-1.2599356803057433,-1.6146401664417431,-1.4930849774197927,-1.7697365984627866,-1.6899155357885105,-0.46486606802747477,6.724842314659913,-0.035455166898342105,-0.03736686187811513,-0.03736686187811513,-0.03736686187811513],[-0.03736686187811513,-0.03736686187811513,-0.03736686187811513,-0.03736686187811513,-0.03736686187811513,-0.03736686187811513,-0.03736686187811513,0.32481469320153444,-0.05965107471606581,-0.6536425104916151,-1.6193789680819262,-2.013114440335766,-1.5229670448982675,-0.9146475584935141,-0.9127062385638429,-1.4176887017669455,-1.5775681190857336,-0.6458547624342929,0.6659441412398853,-0.005954168810473626,-0.03736686187811513,-0.03736686187811513,-0.03736686187811513,-0.03736686187811513],[-0.03736686187811513,-0.03736686187811513,-0.03736686187811513,-0.03736686187811513,-0.03736686187811513,-0.03736686187811513,-0.03736686187811513,-0.03736686187811513,1.872053124063649,-0.005079172257303231,-0.5266333877715899,-1.0456438278955331,-1.2962975286403247,-1.1467493234888861,-1.0714947352470467,-1.0358425014525046,-0.5863453877822474,-0.15865667543087397,-0.027299299174532093,-0.03654756402964098,-0.03736686187811513,-0.03736686187811513,-0.03736686187811513,-0.03736686187811513]],"inputs":[[0.0,0.0,0.0,0.0,0.0,0.0,0.0,0.0,0.0,0.0,0.0,0.0,0.0,0.0,0.0,0.0,0.0,0.0,0.0,0.0,0.0,0.0,0.0,0.0,0.0,0.0,0.0,0.0],[0.0,0.0,0.0,0.0,0.0,0.0,0.0,0.0,0.0,0.0,0.0,0.0,0.0,0.0,0.0,0.0,0.0,0.0,0.0,0.0,0.0,0.0,0.0,0.0,0.0,0.0,0.0,0.0],[0.0,0.0,0.0,0.0,0.0,0.0,0.0,0.0,0.0,0.0,0.0,0.0,0.0,0.0,0.0,0.0,0.0,0.0,0.0,0.0,0.0,0.0,0.0,0.0,0.0,0.0,0.0,0.0],[0.0,0.0,0.0,0.0,0.0,0.0,0.0,0.0,0.0,0.0,0.0,0.0,0.0,0.0,0.0,0.0,0.0,0.0,0.0,0.0,0.0,0.0,0.0,0.0,0.0,0.0,0.0,0.0],[0.0,0.0,0.0,0.0,0.0,0.0,0.0,0.0,0.0,0.0,0.0,0.0,0.0,0.0,0.0,0.0,0.0,0.0,0.0,0.0,0.0,0.0,0.0,0.0,0.0,0.0,0.0,0.0],[0.0,0.0,0.0,0.0,0.0,0.0,0.0,0.0,0.0,0.0,0.0,0.0,0.0,0.0,0.0,0.0,6.0,75.0,0.0,96.0,183.0,177.0,93.0,18.0,0.0,0.0,0.0,0.0],[0.0,0.0,0.0,0.0,0.0,0.0,0.0,0.0,0.0,0.0,0.0,0.0,0.0,15.0,111.0,195.0,237.0,93.0,0.0,207.0,249.0,252.0,252.0,114.0,0.0,0.0,0.0,0.0],[0.0,0.0,0.0,0.0,0.0,0.0,0.0,0.0,0.0,0.0,18.0,48.0,105.0,195.0,246.0,183.0,24.0,0.0,0.0,81.0,243.0,252.0,249.0,90.0,0.0,0.0,0.0,0.0],[0.0,0.0,0.0,0.0,0.0,0.0,0.0,0.0,18.0,84.0,228.0,252.0,252.0,219.0,84.0,0.0,0.0,0.0,123.0,252.0,252.0,177.0,51.0,0.0,0.0,0.0,0.0,0.0],[0.0,0.0,0.0,0.0,0.0,0.0,0.0,0.0,132.0,252.0,252.0,216.0,117.0,3.0,0.0,0.0,60.0,201.0,252.0,240.0,129.0,6.0,0.0,0.0,0.0,0.0,0.0,0.0],[0.0,0.0,0.0,0.0,0.0,0.0,0.0,105.0,243.0,252.0,213.0,45.0,0.0,0.0,0.0,60.0,240.0,252.0,219.0,27.0,0.0,0.0,0.0,0.0,0.0,0.0,0.0,0.0],[0.0,0.0,0.0,0.0,0.0,0.0,42.0,246.0,252.0,207.0,48.0,0.0,0.0,0.0,30.0,240.0,252.0,219.0,27.0,0.0,0.0,0.0,0.0,0.0,0.0,0.0,0.0,0.0],[0.0,0.0,0.0,0.0,0.0,0.0,93.0,252.0,252.0,54.0,0.0,0.0,0.0,15.0,198.0,252.0,216.0,27.0,0.0,0.0,0.0,0.0,0.0,0.0,0.0,0.0,0.0,0.0],[0.0,0.0,0.0,0.0,0.0,0.0,27.0,219.0,252.0,231.0,144.0,39.0,42.0,204.0,252.0,204.0,9.0,0.0,0.0,0.0,0.0,0.0,0.0,0.0,0.0,0.0,0.0,0.0],[0.0,0.0,0.0,0.0,0.0,0.0,0.0,114.0,246.0,252.0,252.0,243.0,231.0,252.0,222.0,24.0,0.0,0.0,0.0,0.0,0.0,0.0,0.0,0.0,0.0,0.0,0.0,0.0],[0.0,0.0,0.0,0.0,0.0,0.0,0.0,0.0,36.0,84.0,168.0,243.0,252.0,252.0,252.0,207.0,114.0,9.0,0.0,0.0,0.0,0.0,0.0,0.0,0.0,0.0,0.0,0.0],[0.0,0.0,0.0,0.0,0.0,0.0,0.0,0.0,0.0,0.0,12.0,234.0,252.0,228.0,162.0,237.0,243.0,210.0,78.0,0.0,0.0,0.0,0.0,0.0,0.0,0.0,0.0,0.0],[0.0,0.0,0.0,0.0,0.0,0.0,0.0,0.0,0.0,0.0,99.0,252.0,252.0,99.0,0.0,0.0,36.0,225.0,252.0,129.0,6.0,0.0,0.0,0.0,0.0,0.0,0.0,0.0],[0.0,0.0,0.0,0.0,0.0,0.0,0.0,0.0,0.0,0.0,69.0,252.0,228.0,12.0,0.0,0.0,0.0,0.0,168.0,252.0,51.0,0.0,0.0,0.0,0.0,0.0,0.0,0.0],[0.0,0.0,0.0,0.0,0.0,0.0,0.0,0.0,0.0,0.0,96.0,252.0,252.0,18.0,0.0,0.0,0.0,0.0,81.0,252.0,198.0,0.0,0.0,0.0,0.0,0.0,0.0,0.0],[0.0,0.0,0.0,0.0,0.0,0.0,0.0,0.0,0.0,0.0,78.0,252.0,252.0,18.0,0.0,0.0,0.0,0.0,129.0,252.0,117.0,0.0,0.0,0.0,0.0,0.0,0.0,0.0],[0.0,0.0,0.0,0.0,0.0,0.0,0.0,0.0,0.0,0.0,3.0,213.0,252.0,78.0,0.0,0.0,0.0,0.0,183.0,243.0,63.0,0.0,0.0,0.0,0.0,0.0,0.0,0.0],[0.0,0.0,0.0,0.0,0.0,0.0,0.0,0.0,0.0,0.0,0.0,63.0,252.0,222.0,24.0,0.0,0.0,126.0,252.0,177.0,0.0,0.0,0.0,0.0,0.0,0.0,0.0,0.0],[0.0,0.0,0.0,0.0,0.0,0.0,0.0,0.0,0.0,0.0,0.0,0.0,87.0,237.0,222.0,117.0,177.0,252.0,216.0,27.0,0.0,0.0,0.0,0.0,0.0,0.0,0.0,0.0],[0.0,0.0,0.0,0.0,0.0,0.0,0.0,0.0,0.0,0.0,0.0,0.0,0.0,18.0,153.0,195.0,195.0,99.0,24.0,0.0,0.0,0.0,0.0,0.0,0.0,0.0,0.0,0.0],[0.0,0.0,0.0,0.0,0.0,0.0,0.0,0.0,0.0,0.0,0.0,0.0,0.0,0.0,0.0,0.0,0.0,0.0,0.0,0.0,0.0,0.0,0.0,0.0,0.0,0.0,0.0,0.0],[0.0,0.0,0.0,0.0,0.0,0.0,0.0,0.0,0.0,0.0,0.0,0.0,0.0,0.0,0.0,0.0,0.0,0.0,0.0,0.0,0.0,0.0,0.0,0.0,0.0,0.0,0.0,0.0],[0.0,0.0,0.0,0.0,0.0,0.0,0.0,0.0,0.0,0.0,0.0,0.0,0.0,0.0,0.0,0.0,0.0,0.0,0.0,0.0,0.0,0.0,0.0,0.0,0.0,0.0,0.0,0.0]]},"dense_params":null},{"activation":{"function":"ReLU"},"layer_type":"Convolutional","conv_params":{"kernel":5,"padding_type":"Valid","padding":0,"stride":1,"data":[[-0.03736686187811513,-0.03736686187811513,-0.03736686187811513,-0.03736686187811513,-0.03736686187811513,-0.03736686187811513,-0.03736686187811513,-0.03736686187811513,-0.03736686187811513,-0.03736686187811513,-0.03736686187811513,-0.03736686187811513,-0.03736686187811513,-0.03736686187811513,-0.03736686187811513,-0.03736686187811513,-0.03736686187811513,-0.03736686187811513,-0.03736686187811513,-0.03736686187811513,-0.03736686187811513,-0.03736686187811513,-0.03736686187811513,-0.03736686187811513],[-0.03736686187811513,-0.03736686187811513,-0.03736686187811513,-0.03736686187811513,-0.03736686187811513,-0.03736686187811513,-0.03736686187811513,-0.03736686187811513,-0.03736686187811513,-0.03736686187811513,-0.03736686187811513,-0.03736686187811513,-0.027708582227833817,8.057679407806832,-0.0788385591770687,2.7135301820948214,11.574023790339009,-0.09829980592922428,-0.2812276325024439,-0.6519531863532543,-0.7251244358397559,-0.5264439646872991,-0.24903858984012384,-0.07440734861689678],[-0.03736686187811513,-0.03736686187811513,-0.03736686187811513,-0.03736686187811513,-0.03736686187811513,-0.03736686187811513,-0.03736686187811513,-0.03736686187811513,-0.03736686187811513,-0.01322116275241185,13.434921247125674,20.83546893308891,11.748700184023285,-0.31359709230693705,-0.7165928691710117,-0.5006729008553911,-0.24016856011238477,2.8163511354608737,-0.37243257217552933,-1.3956166740053226,-1.624767046977715,-1.2084474895732964,-0.7441919015193775,-0.27701971155410954],[-0.03736686187811513,-0.03736686187811513,-0.03736686187811513,-0.03736686187811513,-0.03736686187811513,-0.03736686187811513,-0.00839202292727119,3.154485630713645,8.939071043876995,16.4218456177888,15.077735528431369,-0.05530189662335527,-0.5758059416513074,-1.1632675138240147,-1.4248445880727232,-0.8311108851211502,-0.1419065873977588,-0.16971235930099257,-0.6015909653398256,-1.3906906394637386,-2.0995056780242853,-1.8563575691644765,-1.050369002090568,-0.27307652648818426],[-0.03736686187811513,-0.03736686187811513,-0.03736686187811513,-0.03736686187811513,-0.00839202292727119,8.949453420882435,28.269010282472532,20.0514519087304,-0.02992310944131223,-0.37648750846699425,-1.0802584650743108,-1.635226273304358,-1.9122316060978157,-1.754514031758604,-0.616127230204745,-0.7268507573425096,-1.0537940887789095,-0.9810208251337481,-2.1673282013359185,-2.671004094719903,-2.0290491724673014,-1.402137883134024,-0.6904536076503552,-0.1621137524102754],[-0.03736686187811513,-0.03736686187811513,-0.03736686187811513,-0.03736686187811513,18.712898801726002,38.265204836171996,29.839303253881187,-0.05129064427081208,-0.972234469806222,-1.8935994350077519,-2.236238365782185,-2.1983747656809967,-1.665068080531301,-0.8527932282963796,-0.8383010622314991,-0.6558332459056415,-1.0774306782861363,-2.8827924886936303,-3.7241793616394228,-3.196055033458605,-1.9293566649943514,-0.892516011037641,-0.2549188037457292,-0.019071291963987852],[-0.03736686187811513,-0.03736686187811513,-0.03736686187811513,13.165303200180785,36.19005143511338,27.64923961289151,-0.4198779404418249,-1.684801192450508,-2.342090487946704,-2.629500625381506,-2.327360471148754,-1.4619046734788703,-1.0077214432166104,-0.9845015877190043,-0.7421799516962001,-1.4407715334426192,-2.4763978166784297,-3.0089036286987643,-3.3032151051828675,-2.462930790880238,-1.7708944751194142,-0.8020012123085344,1.313006062648271,5.289819738907154],[-0.03736686187811513,-0.03736686187811513,3.024109567385407,40.92086286806744,23.088506999703146,-0.5771712774301221,-1.721020189033506,-2.6895829942930534,-3.114395646967219,-2.536997315657426,-1.5427566454333461,-1.0304248759861692,-0.6671005196420116,-0.5720060791242544,-1.5668886316543882,-2.447822737472275,-2.6899955180102335,-2.5867312632391197,-1.9257286830520832,-1.6394921644197493,-0.9157892512800561,-0.2506740394194918,-0.04607127365463702,-0.03463586904986796],[-0.03736686187811513,-0.03736686187811513,14.036843374267981,35.26326301325446,-0.20910200422918881,-1.3651650317454007,-2.489688298918248,-3.2958786772648883,-2.846493453489777,-1.9329260594775755,-1.001013166085109,-0.25789598102451256,-0.4341927709712655,-1.568983868498636,-2.367339661101385,-2.765542946099774,-2.4993636671880344,-1.961813135000875,-1.3348191711769894,-0.5014479566248219,-0.13405373915588223,-0.06329725317421617,-0.03581929927544173,-0.03736686187811513],[-0.03736686187811513,-0.03736686187811513,-0.0047708093413139805,-0.05964726930425759,-0.4369353606564517,-1.2326571607593941,-2.883347914831895,-3.397013572188322,-2.773601226252108,-1.3976697175571102,-0.26454139619884465,-0.3958481710984483,-1.5882159571495778,-2.271233140213609,-2.9470422940870824,-2.5352105116151007,-1.88317932080969,-1.0376775455632914,-0.28856227817410385,-0.1091358039775288,-0.037815779683584745,-0.03718479568956532,-0.03736686187811513,-0.03736686187811513],[-0.03736686187811513,-0.03736686187811513,-0.23620423059725068,-0.5268525435060974,-0.4517575610713411,-1.1705410934564136,-2.066508675556709,-2.8820036101561017,-2.38370958620367,-1.150152272503041,-0.9995896179783504,-2.04172179780951,-2.342421012851285,-2.947734738338074,-2.6252442835369574,-1.9444663482525806,-0.8792756826993395,-0.07483066354147022,-0.02431473935743251,-0.03654756402964098,-0.03736686187811513,-0.03736686187811513,-0.03736686187811513,-0.03736686187811513],[-0.03736686187811513,-0.03736686187811513,-0.17974916665578822,-0.62245593587366,-1.217437232846933,-1.5122299450715215,-1.9170619583578747,-1.3179515153774997,-0.9562116472536083,-1.5142649635851393,-2.1217745478755425,-2.2157411065742663,-2.9752171065964554,-3.21955738851193,-2.857675457939264,-1.4131950635990713,-0.3040209506919585,-0.04283498272682334,-0.03654756402964098,-0.03736686187811513,-0.03736686187811513,-0.03736686187811513,-0.03736686187811513,-0.03736686187811513],[-0.03736686187811513,-0.03736686187811513,-0.012996478728099201,-0.4702417256340226,-1.3488062149919247,-2.2601900749678605,-2.1091447527471057,-1.172381863352903,-0.959423274809747,-1.4334321592607142,-1.9977313967080674,-2.5358547776401235,-2.70320532374594,-3.1113509437142786,-2.231126656861441,-1.3827303048751116,-0.9140398391814827,-0.5591669386643754,-0.197875637746169,-0.03736686187811513,-0.03736686187811513,-0.03736686187811513,-0.03736686187811513,-0.03736686187811513],[-0.03736686187811513,-0.03736686187811513,-0.019960429530916368,-0.07646434998787173,-0.5782995250986726,-1.4422873217268952,-2.0583757074634175,-1.8635220610098155,-1.4681706691477883,-1.9333227780809252,-3.0744239387164924,-3.4509089850175285,-2.8617195373890114,-1.0796047615882745,-0.5381271220187467,-1.1951120900735341,-1.3624934883602595,-1.1442252076901178,-0.7299887843642148,-0.30958897677659597,-0.049713690791042354,-0.03736686187811513,-0.03736686187811513,-0.03736686187811513],[-0.03736686187811513,-0.03736686187811513,-0.03736686187811513,3.612696358783527,-0.05303520157099359,-0.48064838011245004,-0.8641360144238347,-1.1551850220814428,-1.8686049157949913,-2.752364509550144,-3.6295785841587533,-4.034779200864129,-3.1455601505890907,-1.3589783598265937,-0.11419713455507231,11.232110066146262,-1.0763928213633478,-1.4853837447650025,-1.1213481768334468,-0.6609103218720673,-0.14400260774812224,-0.03736686187811513,-0.03736686187811513,-0.03736686187811513],[-0.03736686187811513,-0.03736686187811513,-0.03736686187811513,-0.03736686187811513,-0.014158285415183443,-0.02325987599638027,-0.07734418121171525,-0.551363245253961,-1.0806808332902826,-2.549900181376403,-3.4450132288913564,-3.378147493070928,-2.551706394803664,-2.067997957209415,-1.6059037794955284,-0.18176107883826423,-0.02569499170984397,-1.2105465196266507,-1.598628083866895,-1.0841242345214415,-0.46530464321537296,-0.03736686187811513,-0.03736686187811513,-0.03736686187811513],[-0.03736686187811513,-0.03736686187811513,-0.03736686187811513,-0.03736686187811513,-0.03736686187811513,-0.03736686187811513,-0.09030373588937257,-0.1553667229356736,-0.9123060116487092,-2.1456723201359313,-3.0202579926248165,-2.7077044121075904,-1.3703853263200938,-0.9912948177043919,-1.333079475380094,-1.5443389484628507,-1.0492367713142716,-0.9240926418768791,-1.656606989327737,-1.3236673264748036,-0.3802863742027164,-0.03736686187811513,-0.03736686187811513,-0.03736686187811513],[-0.03736686187811513,-0.03736686187811513,-0.03736686187811513,-0.03736686187811513,-0.03736686187811513,-0.03736686187811513,-0.1743075857636915,-0.32465654746050165,-0.8788427308821802,-2.0066592973589503,-2.7760100317723793,-2.227570714861686,-0.8564488038386217,-0.10179422420306347,-0.17429249336885985,-0.9989485819564271,-1.931564567856056,-2.0828211722860797,-1.6949179361850832,-1.17300178712426,-0.35339691419622504,-0.03736686187811513,-0.03736686187811513,-0.03736686187811513],[-0.03736686187811513,-0.03736686187811513,-0.03736686187811513,-0.03736686187811513,-0.03736686187811513,-0.03736686187811513,-0.2528606809800926,-0.615921390542436,-0.8486827923429588,-1.4030819958271932,-2.3401747185346684,-1.9902580857156915,-1.0989858244389408,-0.341092569624056,16.008185115350567,-0.6608539497304643,-1.89612832900514,-2.590352222840867,-2.395808765675141,-0.9015214809732779,1.7566575920148937,-0.03736686187811513,-0.03736686187811513,-0.03736686187811513],[-0.03736686187811513,-0.03736686187811513,-0.03736686187811513,-0.03736686187811513,-0.03736686187811513,-0.03736686187811513,-0.08348852616431829,-0.661626119322419,-1.285951691190662,-1.080586162007931,-1.362626074270502,-1.5780778502394055,-1.1306231158240803,-0.6668776627214679,-0.7290316743287645,-1.5471425459744732,-2.271567588628622,-2.9137186623186113,-2.1548836880040194,-0.4372738822373843,1.6945613650989133,-0.03736686187811513,-0.03736686187811513,-0.03736686187811513],[-0.03736686187811513,-0.03736686187811513,-0.03736686187811513,-0.03736686187811513,-0.03736686187811513,-0.03736686187811513,0.8964486453137891,-0.3523924912221763,-1.1610325742478727,-1.884741032641143,-0.9910363237936994,-0.3271722455009896,-0.7468589312765567,-1.0332942008975723,-1.6597923054619823,-2.0097508897979037,-2.3440354009001685,-2.319807978625533,-1.190984426849282,-0.11287187528626108,2.6947489977924377,-0.03736686187811513,-0.03736686187811513,-0.03736686187811513],[-0.03736686187811513,-0.03736686187811513,-0.03736686187811513,-0.03736686187811513,-0.03736686187811513,-0.03736686187811513,-0.035432813839537496,1.3581438153948617,-0.6130088730678032,-1.6915864934633178,-1.956022977287629,-1.0161619554842245,-0.4312400209224329,-1.2599356803057433,-1.6146401664417431,-1.4930849774197927,-1.7697365984627866,-1.6899155357885105,-0.46486606802747477,6.724842314659913,-0.035455166898342105,-0.03736686187811513,-0.03736686187811513,-0.03736686187811513],[-0.03736686187811513,-0.03736686187811513,-0.03736686187811513,-0.03736686187811513,-0.03736686187811513,-0.03736686187811513,-0.03736686187811513,0.32481469320153444,-0.05965107471606581,-0.6536425104916151,-1.6193789680819262,-2.013114440335766,-1.5229670448982675,-0.9146475584935141,-0.9127062385638429,-1.4176887017669455,-1.5775681190857336,-0.6458547624342929,0.6659441412398853,-0.005954168810473626,-0.03736686187811513,-0.03736686187811513,-0.03736686187811513,-0.03736686187811513],[-0.03736686187811513,-0.03736686187811513,-0.03736686187811513,-0.03736686187811513,-0.03736686187811513,-0.03736686187811513,-0.03736686187811513,-0.03736686187811513,1.872053124063649,-0.005079172257303231,-0.5266333877715899,-1.0456438278955331,-1.2962975286403247,-1.1467493234888861,-1.0714947352470467,-1.0358425014525046,-0.5863453877822474,-0.15865667543087397,-0.027299299174532093,-0.03654756402964098,-0.03736686187811513,-0.03736686187811513,-0.03736686187811513,-0.03736686187811513]],"weights":[[0.028476503123470692,0.10318266176548523,-0.05459830320625196,0.2521195766528809,0.11206789709843488],[0.1397259294108384,0.23362443974092356,0.006727660665097783,0.12331184128242342,0.2885132979193808],[0.24210607608535495,0.21964216554951432,0.2246612415481513,0.1599575855862908,-0.06060669741370034],[0.26704913067821806,0.19666566759547577,-0.04815935474661877,0.06197070658393462,0.2988351741411727],[0.26006467798438243,0.001020005488875705,-0.0643025684209123,0.1306296481714096,0.16322148701805855]],"bias":0.10364354531660366,"outputs":[[2.473033936741904,3.9389317635764365,8.269254306233302,9.822670895066654,6.169125443535962,8.813574994183739,14.562714731781721,10.96926630185267,12.425616293533961,20.84866071655187,17.049161852906128,9.938284694274605,9.541310967292395,3.225942161601371,2.0152584251027337,4.377402722062003,2.657661424495697,0.988322313498634,-0.001623026238737951,-0.0037489143674481287],[5.5374095650829345,13.856821531787958,20.155289635375336,11.066480347463902,6.9402001832968265,20.102919319509958,29.205186190430904,23.32802809029321,16.42852856470546,13.78593666869887,13.062234741617992,5.555036976623544,4.172835956217916,3.6409751521939366,-0.004473863776408362,0.6047989698382007,0.44137694578811804,-0.006578587968591837,-0.01819545653866034,-0.01613652827967627],[15.707540686311852,22.938859153972512,13.842172851355143,13.789966778495087,36.70896001533424,43.35692431977006,29.04433877977994,15.758416258501676,10.98483934541312,8.198900223924088,2.5201054507027996,0.5754476039546691,-0.00507486273631026,-0.008773746614535461,-0.005193565955817019,-0.01741811697634722,-0.022367118727143174,-0.030816662052988483,-0.02867404208567222,-0.009498400478527689],[21.912616079355164,15.927708516016576,21.734070017364907,48.54856295720398,48.39010060423791,35.80583449145781,21.339228431336313,5.53898915264997,-0.009978354312662014,-0.00595953948295385,-0.01663806969740755,-0.018691792948952544,-0.016746989973135833,-0.010996760680487817,-0.018965494140467217,-0.03242544814952466,-0.04132175840215902,-0.04355613188825703,-0.02940047975057774,-0.00013572812926439387],[20.777362179605998,21.335314986206136,47.22032168992617,60.12760895625079,37.35096870337155,20.130430516203216,4.904880676920482,-0.02750572099016116,-0.03503166617223466,-0.028949898937742736,-0.02333356602516673,-0.015508169470073687,-0.013509359473767421,-0.022432491247599433,-0.034132668976659286,-0.045417087713576415,-0.0457479674512652,-0.03844479295096233,-0.026514048645056732,-0.007826046554175682],[23.87579167535966,38.0527764052884,45.337629192960904,42.0626167923412,18.700870937825194,5.400127547178946,-0.03118215452519578,-0.041975653703308295,-0.03715705950885212,-0.02787695731857488,-0.015193368798755963,-0.01271051499712037,-0.02013453644413146,-0.03217355874398825,-0.04591951940642778,-0.045879600496115204,-0.03853156451392167,-0.025581854087061345,-0.0037823714423868083,2.340872917896327],[30.178032881727255,28.16331044619631,28.042814091782763,20.963008172991398,4.384249597382369,-0.029733667423348552,-0.04423679137605303,-0.045773272068903664,-0.03520496659995248,-0.018371120570999506,-0.014082323949108563,-0.02026884372974277,-0.030168957955304082,-0.040010487740180185,-0.04218121364495067,-0.03749561947518556,-0.022456628661170677,-0.005135126945827727,0.9855731840204139,2.6105517675710983],[19.2408130938351,8.712677491157697,13.16275646196356,6.709571711893671,-0.024016815329512168,-0.04036907542805852,-0.046733427304386885,-0.04013418701204259,-0.025577881521914887,-0.02029178885467094,-0.023871741201453297,-0.03239675272540279,-0.03951704701666802,-0.04174241470652624,-0.036795118564702224,-0.019540491460724722,-0.0019366707298817951,1.1259653015234046,1.8765237757051902,2.2371706477933606],[9.710732042643297,0.24319090061575518,3.3447470636124548,-0.0073950436129041055,-0.027293830269009018,-0.038723427008087126,-0.03974398000089161,-0.02916223751047991,-0.02582632524283332,-0.030362550960910572,-0.03932256746999401,-0.04392292762329049,-0.044826975183495606,-0.04133158769678622,-0.02436293563801702,-0.0038687047822070653,1.1408271295609815,1.935559593828069,2.2923574243710547,2.436985452095607],[1.66639559796544,0.5309836098065407,-0.007981970779962572,-0.020178337670458762,-0.02727525360037559,-0.030623682435372813,-0.03193089440741731,-0.03221667278671383,-0.03157280761472661,-0.03852764865033744,-0.04646868250746127,-0.05215738430775619,-0.048563965877562974,-0.03165319938256153,-0.011037007964027045,0.45294693541190834,1.4485314157173095,1.9708198324172816,2.2335560789079723,2.3955111575681074],[2.2207933279649095,0.7106922792457069,-0.004369704799615113,-0.005132004066701331,-0.021321782607297585,-0.02905168274863856,-0.03451716900891261,-0.03629182055759004,-0.041782879694609004,-0.04519029495446654,-0.05155104395881488,-0.03363396388811926,-0.026315578264634622,-0.029525608063596085,-0.004601557724335918,3.5556257595664316,1.1789057546864505,1.5354080410267819,1.9164246358759054,2.230932676515413],[2.020479341876612,0.9122770007981879,1.1171726581151813,0.6894471624887507,-0.011590037954266023,-0.02383558613801328,-0.03325193916284555,-0.04067896318342154,-0.04768401211911443,-0.058627873623975875,-0.058670982686342105,-0.01151945227477473,-0.020912354745277268,-0.020013352965947258,1.7288843051676983,3.3561939773594616,0.767383710252077,1.0028471744370413,1.42909798199185,1.9395366611277391],[2.6418376610341334,2.2965099017604755,1.693224954768334,1.412917925473059,0.027559276597893215,-0.01454035790725718,-0.03086921978244424,-0.04086341735138285,-0.0489180646828559,-0.05714114889615453,-0.05956566057420787,-0.05075127528404735,-0.002305449116890117,1.688655573607875,1.896286980479915,2.5773737808049786,0.2772180212246471,0.5804625197539948,0.8773699553112865,1.554430833176059],[2.841044727590035,2.0759982156354324,2.444767174911811,1.782503695201106,0.5684893742266686,-0.007629313733528128,-0.02533744186511422,-0.03984350380703361,-0.04568424322578288,-0.04818380987098325,-0.04526780927409797,-0.004315993654984016,-0.007333624876763457,-0.0077732172466851435,2.0871437229527534,1.1144040316614874,-0.0019822989504737613,-0.00042867948877332667,0.33848974698144624,1.2932145016727157],[3.3934970794466337,2.2223213845748493,2.5588432069236653,1.8951706231694232,1.1875350741013853,-0.0019489227058874302,-0.020268099347708745,-0.0333874852302512,-0.039617829374328895,-0.041288853591389785,-0.0099813860851063,1.2431337821034505,0.5751855326109544,-0.01975699955901866,4.252230070528978,-0.004912331513948033,-0.0049217456648931995,-0.003938125620502191,-0.0021860776435483806,1.2182399507145945],[2.470905556801087,2.475736897156952,2.3872152980739196,2.0630181374055,1.3827323659196886,0.3426332813433124,-0.013299928072475015,-0.02621515391226692,-0.03092521045583136,-0.03079671782340695,1.9620894906239255,-0.007665596804477571,-0.014525636269039958,2.258257129302478,2.5540243335032904,-0.016752352565795863,-0.005584622070767134,-0.009860850407298975,-0.0046023662026077276,1.8099554868860888],[2.4683046204422383,2.4683046204422383,2.57455922521971,2.2237115261387497,1.2782911402921604,0.2870122631690598,-0.005465690392751175,-0.01696934902748672,-0.02081582158201093,-0.02111497343247911,-0.02845993103788738,1.213192118630197,2.548809994323531,2.2950056018558627,2.056771297516584,-0.022496712560931238,-0.013583199373789955,-0.007941798177634081,0.2480901976820823,2.565574861039336],[2.4683046204422383,2.4683046204422383,2.672953008714742,2.430304839244634,1.6555639948560255,0.3440258907919115,-0.0048983101998350065,-0.006639621136776095,-0.01325295692057949,-0.015802538070707226,3.304713881356792,1.2058381503904365,-0.009917626820442794,1.6706570291742127,-0.0025925331620903483,-0.012743273947561176,-0.0004485707212732168,-0.009734676468911697,1.031522077907508,5.2610881276127754],[2.4683046204422383,2.4683046204422383,2.3748304555268307,2.8080694556281856,1.9913036743428842,0.9930606572806061,0.1293262720004081,-0.006913451281448518,-0.009795247743000895,-0.010942071840607375,0.8278357872244291,3.0984281180499407,-0.02541019816297554,-0.008502920608446997,-0.019639495869061736,0.021049525421025936,-0.0057045488955926125,0.5696201552509763,3.5528757924895147,5.373747118923481],[2.4683046204422383,2.4683046204422383,2.732436837878942,2.4349431104831263,2.4027405273148057,1.9842436342423513,0.9978490721229266,0.14883999667193232,-0.00441869694785264,-0.008562023748128419,-0.009859993258191044,-0.01476371991320073,-0.018735716047183344,-0.019791373989915425,-0.01701645160144504,-0.016433837479105828,1.7292045393376645,3.342602925276291,3.690543017381861,4.909554281255678]],"inputs":[[-0.03736686187811513,-0.03736686187811513,-0.03736686187811513,-0.03736686187811513,-0.03736686187811513,-0.03736686187811513,-0.03736686187811513,-0.03736686187811513,-0.03736686187811513,-0.03736686187811513,-0.03736686187811513,-0.03736686187811513,-0.03736686187811513,-0.03736686187811513,-0.03736686187811513,-0.03736686187811513,-0.03736686187811513,-0.03736686187811513,-0.03736686187811513,-0.03736686187811513,-0.03736686187811513,-0.03736686187811513,-0.03736686187811513,-0.03736686187811513],[-0.03736686187811513,-0.03736686187811513,-0.03736686187811513,-0.03736686187811513,-0.03736686187811513,-0.03736686187811513,-0.03736686187811513,-0.03736686187811513,-0.03736686187811513,-0.03736686187811513,-0.03736686187811513,-0.03736686187811513,-0.027708582227833817,8.057679407806832,-0.0788385591770687,2.7135301820948214,11.574023790339009,-0.09829980592922428,-0.2812276325024439,-0.6519531863532543,-0.7251244358397559,-0.5264439646872991,-0.24903858984012384,-0.07440734861689678],[-0.03736686187811513,-0.03736686187811513,-0.03736686187811513,-0.03736686187811513,-0.03736686187811513,-0.03736686187811513,-0.03736686187811513,-0.03736686187811513,-0.03736686187811513,-0.01322116275241185,13.434921247125674,20.83546893308891,11.748700184023285,-0.31359709230693705,-0.7165928691710117,-0.5006729008553911,-0.24016856011238477,2.8163511354608737,-0.37243257217552933,-1.3956166740053226,-1.624767046977715,-1.2084474895732964,-0.7441919015193775,-0.27701971155410954],[-0.03736686187811513,-0.03736686187811513,-0.03736686187811513,-0.03736686187811513,-0.03736686187811513,-0.03736686187811513,-0.00839202292727119,3.154485630713645,8.939071043876995,16.4218456177888,15.077735528431369,-0.05530189662335527,-0.5758059416513074,-1.1632675138240147,-1.4248445880727232,-0.8311108851211502,-0.1419065873977588,-0.16971235930099257,-0.6015909653398256,-1.3906906394637386,-2.0995056780242853,-1.8563575691644765,-1.050369002090568,-0.27307652648818426],[-0.03736686187811513,-0.03736686187811513,-0.03736686187811513,-0.03736686187811513,-0.00839202292727119,8.949453420882435,28.269010282472532,20.0514519087304,-0.02992310944131223,-0.37648750846699425,-1.0802584650743108,-1.635226273304358,-1.9122316060978157,-1.754514031758604,-0.616127230204745,-0.7268507573425096,-1.0537940887789095,-0.9810208251337481,-2.1673282013359185,-2.671004094719903,-2.0290491724673014,-1.402137883134024,-0.6904536076503552,-0.1621137524102754],[-0.03736686187811513,-0.03736686187811513,-0.03736686187811513,-0.03736686187811513,18.712898801726002,38.265204836171996,29.839303253881187,-0.05129064427081208,-0.972234469806222,-1.8935994350077519,-2.236238365782185,-2.1983747656809967,-1.665068080531301,-0.8527932282963796,-0.8383010622314991,-0.6558332459056415,-1.0774306782861363,-2.8827924886936303,-3.7241793616394228,-3.196055033458605,-1.9293566649943514,-0.892516011037641,-0.2549188037457292,-0.019071291963987852],[-0.03736686187811513,-0.03736686187811513,-0.03736686187811513,13.165303200180785,36.19005143511338,27.64923961289151,-0.4198779404418249,-1.684801192450508,-2.342090487946704,-2.629500625381506,-2.327360471148754,-1.4619046734788703,-1.0077214432166104,-0.9845015877190043,-0.7421799516962001,-1.4407715334426192,-2.4763978166784297,-3.0089036286987643,-3.3032151051828675,-2.462930790880238,-1.7708944751194142,-0.8020012123085344,1.313006062648271,5.289819738907154],[-0.03736686187811513,-0.03736686187811513,3.024109567385407,40.92086286806744,23.088506999703146,-0.5771712774301221,-1.721020189033506,-2.6895829942930534,-3.114395646967219,-2.536997315657426,-1.5427566454333461,-1.0304248759861692,-0.6671005196420116,-0.5720060791242544,-1.5668886316543882,-2.447822737472275,-2.6899955180102335,-2.5867312632391197,-1.9257286830520832,-1.6394921644197493,-0.9157892512800561,-0.2506740394194918,-0.04607127365463702,-0.03463586904986796],[-0.03736686187811513,-0.03736686187811513,14.036843374267981,35.26326301325446,-0.20910200422918881,-1.3651650317454007,-2.489688298918248,-3.2958786772648883,-2.846493453489777,-1.9329260594775755,-1.001013166085109,-0.25789598102451256,-0.4341927709712655,-1.568983868498636,-2.367339661101385,-2.765542946099774,-2.4993636671880344,-1.961813135000875,-1.3348191711769894,-0.5014479566248219,-0.13405373915588223,-0.06329725317421617,-0.03581929927544173,-0.03736686187811513],[-0.03736686187811513,-0.03736686187811513,-0.0047708093413139805,-0.05964726930425759,-0.4369353606564517,-1.2326571607593941,-2.883347914831895,-3.397013572188322,-2.773601226252108,-1.3976697175571102,-0.26454139619884465,-0.3958481710984483,-1.5882159571495778,-2.271233140213609,-2.9470422940870824,-2.5352105116151007,-1.88317932080969,-1.0376775455632914,-0.28856227817410385,-0.1091358039775288,-0.037815779683584745,-0.03718479568956532,-0.03736686187811513,-0.03736686187811513],[-0.03736686187811513,-0.03736686187811513,-0.23620423059725068,-0.5268525435060974,-0.4517575610713411,-1.1705410934564136,-2.066508675556709,-2.8820036101561017,-2.38370958620367,-1.150152272503041,-0.9995896179783504,-2.04172179780951,-2.342421012851285,-2.947734738338074,-2.6252442835369574,-1.9444663482525806,-0.8792756826993395,-0.07483066354147022,-0.02431473935743251,-0.03654756402964098,-0.03736686187811513,-0.03736686187811513,-0.03736686187811513,-0.03736686187811513],[-0.03736686187811513,-0.03736686187811513,-0.17974916665578822,-0.62245593587366,-1.217437232846933,-1.5122299450715215,-1.9170619583578747,-1.3179515153774997,-0.9562116472536083,-1.5142649635851393,-2.1217745478755425,-2.2157411065742663,-2.9752171065964554,-3.21955738851193,-2.857675457939264,-1.4131950635990713,-0.3040209506919585,-0.04283498272682334,-0.03654756402964098,-0.03736686187811513,-0.03736686187811513,-0.03736686187811513,-0.03736686187811513,-0.03736686187811513],[-0.03736686187811513,-0.03736686187811513,-0.012996478728099201,-0.4702417256340226,-1.3488062149919247,-2.2601900749678605,-2.1091447527471057,-1.172381863352903,-0.959423274809747,-1.4334321592607142,-1.9977313967080674,-2.5358547776401235,-2.70320532374594,-3.1113509437142786,-2.231126656861441,-1.3827303048751116,-0.9140398391814827,-0.5591669386643754,-0.197875637746169,-0.03736686187811513,-0.03736686187811513,-0.03736686187811513,-0.03736686187811513,-0.03736686187811513],[-0.03736686187811513,-0.03736686187811513,-0.019960429530916368,-0.07646434998787173,-0.5782995250986726,-1.4422873217268952,-2.0583757074634175,-1.8635220610098155,-1.4681706691477883,-1.9333227780809252,-3.0744239387164924,-3.4509089850175285,-2.8617195373890114,-1.0796047615882745,-0.5381271220187467,-1.1951120900735341,-1.3624934883602595,-1.1442252076901178,-0.7299887843642148,-0.30958897677659597,-0.049713690791042354,-0.03736686187811513,-0.03736686187811513,-0.03736686187811513],[-0.03736686187811513,-0.03736686187811513,-0.03736686187811513,3.612696358783527,-0.05303520157099359,-0.48064838011245004,-0.8641360144238347,-1.1551850220814428,-1.8686049157949913,-2.752364509550144,-3.6295785841587533,-4.034779200864129,-3.1455601505890907,-1.3589783598265937,-0.11419713455507231,11.232110066146262,-1.0763928213633478,-1.4853837447650025,-1.1213481768334468,-0.6609103218720673,-0.14400260774812224,-0.03736686187811513,-0.03736686187811513,-0.03736686187811513],[-0.03736686187811513,-0.03736686187811513,-0.03736686187811513,-0.03736686187811513,-0.014158285415183443,-0.02325987599638027,-0.07734418121171525,-0.551363245253961,-1.0806808332902826,-2.549900181376403,-3.4450132288913564,-3.378147493070928,-2.551706394803664,-2.067997957209415,-1.6059037794955284,-0.18176107883826423,-0.02569499170984397,-1.2105465196266507,-1.598628083866895,-1.0841242345214415,-0.46530464321537296,-0.03736686187811513,-0.03736686187811513,-0.03736686187811513],[-0.03736686187811513,-0.03736686187811513,-0.03736686187811513,-0.03736686187811513,-0.03736686187811513,-0.03736686187811513,-0.09030373588937257,-0.1553667229356736,-0.9123060116487092,-2.1456723201359313,-3.0202579926248165,-2.7077044121075904,-1.3703853263200938,-0.9912948177043919,-1.333079475380094,-1.5443389484628507,-1.0492367713142716,-0.9240926418768791,-1.656606989327737,-1.3236673264748036,-0.3802863742027164,-0.03736686187811513,-0.03736686187811513,-0.03736686187811513],[-0.03736686187811513,-0.03736686187811513,-0.03736686187811513,-0.03736686187811513,-0.03736686187811513,-0.03736686187811513,-0.1743075857636915,-0.32465654746050165,-0.8788427308821802,-2.0066592973589503,-2.7760100317723793,-2.227570714861686,-0.8564488038386217,-0.10179422420306347,-0.17429249336885985,-0.9989485819564271,-1.931564567856056,-2.0828211722860797,-1.6949179361850832,-1.17300178712426,-0.35339691419622504,-0.03736686187811513,-0.03736686187811513,-0.03736686187811513],[-0.03736686187811513,-0.03736686187811513,-0.03736686187811513,-0.03736686187811513,-0.03736686187811513,-0.03736686187811513,-0.2528606809800926,-0.615921390542436,-0.8486827923429588,-1.4030819958271932,-2.3401747185346684,-1.9902580857156915,-1.0989858244389408,-0.341092569624056,16.008185115350567,-0.6608539497304643,-1.89612832900514,-2.590352222840867,-2.395808765675141,-0.9015214809732779,1.7566575920148937,-0.03736686187811513,-0.03736686187811513,-0.03736686187811513],[-0.03736686187811513,-0.03736686187811513,-0.03736686187811513,-0.03736686187811513,-0.03736686187811513,-0.03736686187811513,-0.08348852616431829,-0.661626119322419,-1.285951691190662,-1.080586162007931,-1.362626074270502,-1.5780778502394055,-1.1306231158240803,-0.6668776627214679,-0.7290316743287645,-1.5471425459744732,-2.271567588628622,-2.9137186623186113,-2.1548836880040194,-0.4372738822373843,1.6945613650989133,-0.03736686187811513,-0.03736686187811513,-0.03736686187811513],[-0.03736686187811513,-0.03736686187811513,-0.03736686187811513,-0.03736686187811513,-0.03736686187811513,-0.03736686187811513,0.8964486453137891,-0.3523924912221763,-1.1610325742478727,-1.884741032641143,-0.9910363237936994,-0.3271722455009896,-0.7468589312765567,-1.0332942008975723,-1.6597923054619823,-2.0097508897979037,-2.3440354009001685,-2.319807978625533,-1.190984426849282,-0.11287187528626108,2.6947489977924377,-0.03736686187811513,-0.03736686187811513,-0.03736686187811513],[-0.03736686187811513,-0.03736686187811513,-0.03736686187811513,-0.03736686187811513,-0.03736686187811513,-0.03736686187811513,-0.035432813839537496,1.3581438153948617,-0.6130088730678032,-1.6915864934633178,-1.956022977287629,-1.0161619554842245,-0.4312400209224329,-1.2599356803057433,-1.6146401664417431,-1.4930849774197927,-1.7697365984627866,-1.6899155357885105,-0.46486606802747477,6.724842314659913,-0.035455166898342105,-0.03736686187811513,-0.03736686187811513,-0.03736686187811513],[-0.03736686187811513,-0.03736686187811513,-0.03736686187811513,-0.03736686187811513,-0.03736686187811513,-0.03736686187811513,-0.03736686187811513,0.32481469320153444,-0.05965107471606581,-0.6536425104916151,-1.6193789680819262,-2.013114440335766,-1.5229670448982675,-0.9146475584935141,-0.9127062385638429,-1.4176887017669455,-1.5775681190857336,-0.6458547624342929,0.6659441412398853,-0.005954168810473626,-0.03736686187811513,-0.03736686187811513,-0.03736686187811513,-0.03736686187811513],[-0.03736686187811513,-0.03736686187811513,-0.03736686187811513,-0.03736686187811513,-0.03736686187811513,-0.03736686187811513,-0.03736686187811513,-0.03736686187811513,1.872053124063649,-0.005079172257303231,-0.5266333877715899,-1.0456438278955331,-1.2962975286403247,-1.1467493234888861,-1.0714947352470467,-1.0358425014525046,-0.5863453877822474,-0.15865667543087397,-0.027299299174532093,-0.03654756402964098,-0.03736686187811513,-0.03736686187811513,-0.03736686187811513,-0.03736686187811513]]},"dense_params":null},{"activation":{"function":"ReLU"},"layer_type":"Convolutional","conv_params":{"kernel":5,"padding_type":"Valid","padding":0,"stride":1,"data":[[2.473033936741904,3.9389317635764365,8.269254306233302,9.822670895066654,6.169125443535962,8.813574994183739,14.562714731781721,10.96926630185267,12.425616293533961,20.84866071655187,17.049161852906128,9.938284694274605,9.541310967292395,3.225942161601371,2.0152584251027337,4.377402722062003,2.657661424495697,0.988322313498634,-0.001623026238737951,-0.0037489143674481287],[5.5374095650829345,13.856821531787958,20.155289635375336,11.066480347463902,6.9402001832968265,20.102919319509958,29.205186190430904,23.32802809029321,16.42852856470546,13.78593666869887,13.062234741617992,5.555036976623544,4.172835956217916,3.6409751521939366,-0.004473863776408362,0.6047989698382007,0.44137694578811804,-0.006578587968591837,-0.01819545653866034,-0.01613652827967627],[15.707540686311852,22.938859153972512,13.842172851355143,13.789966778495087,36.70896001533424,43.35692431977006,29.04433877977994,15.758416258501676,10.98483934541312,8.198900223924088,2.5201054507027996,0.5754476039546691,-0.00507486273631026,-0.008773746614535461,-0.005193565955817019,-0.01741811697634722,-0.022367118727143174,-0.030816662052988483,-0.02867404208567222,-0.009498400478527689],[21.912616079355164,15.927708516016576,21.734070017364907,48.54856295720398,48.39010060423791,35.80583449145781,21.339228431336313,5.53898915264997,-0.009978354312662014,-0.00595953948295385,-0.01663806969740755,-0.018691792948952544,-0.016746989973135833,-0.010996760680487817,-0.018965494140467217,-0.03242544814952466,-0.04132175840215902,-0.04355613188825703,-0.02940047975057774,-0.00013572812926439387],[20.777362179605998,21.335314986206136,47.22032168992617,60.12760895625079,37.35096870337155,20.130430516203216,4.904880676920482,-0.02750572099016116,-0.03503166617223466,-0.028949898937742736,-0.02333356602516673,-0.015508169470073687,-0.013509359473767421,-0.022432491247599433,-0.034132668976659286,-0.045417087713576415,-0.0457479674512652,-0.03844479295096233,-0.026514048645056732,-0.007826046554175682],[23.87579167535966,38.0527764052884,45.337629192960904,42.0626167923412,18.700870937825194,5.400127547178946,-0.03118215452519578,-0.041975653703308295,-0.03715705950885212,-0.02787695731857488,-0.015193368798755963,-0.01271051499712037,-0.02013453644413146,-0.03217355874398825,-0.04591951940642778,-0.045879600496115204,-0.03853156451392167,-0.025581854087061345,-0.0037823714423868083,2.340872917896327],[30.178032881727255,28.16331044619631,28.042814091782763,20.963008172991398,4.384249597382369,-0.029733667423348552,-0.04423679137605303,-0.045773272068903664,-0.03520496659995248,-0.018371120570999506,-0.014082323949108563,-0.02026884372974277,-0.030168957955304082,-0.040010487740180185,-0.04218121364495067,-0.03749561947518556,-0.022456628661170677,-0.005135126945827727,0.9855731840204139,2.6105517675710983],[19.2408130938351,8.712677491157697,13.16275646196356,6.709571711893671,-0.024016815329512168,-0.04036907542805852,-0.046733427304386885,-0.04013418701204259,-0.025577881521914887,-0.02029178885467094,-0.023871741201453297,-0.03239675272540279,-0.03951704701666802,-0.04174241470652624,-0.036795118564702224,-0.019540491460724722,-0.0019366707298817951,1.1259653015234046,1.8765237757051902,2.2371706477933606],[9.710732042643297,0.24319090061575518,3.3447470636124548,-0.0073950436129041055,-0.027293830269009018,-0.038723427008087126,-0.03974398000089161,-0.02916223751047991,-0.02582632524283332,-0.030362550960910572,-0.03932256746999401,-0.04392292762329049,-0.044826975183495606,-0.04133158769678622,-0.02436293563801702,-0.0038687047822070653,1.1408271295609815,1.935559593828069,2.2923574243710547,2.436985452095607],[1.66639559796544,0.5309836098065407,-0.007981970779962572,-0.020178337670458762,-0.02727525360037559,-0.030623682435372813,-0.03193089440741731,-0.03221667278671383,-0.03157280761472661,-0.03852764865033744,-0.04646868250746127,-0.05215738430775619,-0.048563965877562974,-0.03165319938256153,-0.011037007964027045,0.45294693541190834,1.4485314157173095,1.9708198324172816,2.2335560789079723,2.3955111575681074],[2.2207933279649095,0.7106922792457069,-0.004369704799615113,-0.005132004066701331,-0.021321782607297585,-0.02905168274863856,-0.03451716900891261,-0.03629182055759004,-0.041782879694609004,-0.04519029495446654,-0.05155104395881488,-0.03363396388811926,-0.026315578264634622,-0.029525608063596085,-0.004601557724335918,3.5556257595664316,1.1789057546864505,1.5354080410267819,1.9164246358759054,2.230932676515413],[2.020479341876612,0.9122770007981879,1.1171726581151813,0.6894471624887507,-0.011590037954266023,-0.02383558613801328,-0.03325193916284555,-0.04067896318342154,-0.04768401211911443,-0.058627873623975875,-0.058670982686342105,-0.01151945227477473,-0.020912354745277268,-0.020013352965947258,1.7288843051676983,3.3561939773594616,0.767383710252077,1.0028471744370413,1.42909798199185,1.9395366611277391],[2.6418376610341334,2.2965099017604755,1.693224954768334,1.412917925473059,0.027559276597893215,-0.01454035790725718,-0.03086921978244424,-0.04086341735138285,-0.0489180646828559,-0.05714114889615453,-0.05956566057420787,-0.05075127528404735,-0.002305449116890117,1.688655573607875,1.896286980479915,2.5773737808049786,0.2772180212246471,0.5804625197539948,0.8773699553112865,1.554430833176059],[2.841044727590035,2.0759982156354324,2.444767174911811,1.782503695201106,0.5684893742266686,-0.007629313733528128,-0.02533744186511422,-0.03984350380703361,-0.04568424322578288,-0.04818380987098325,-0.04526780927409797,-0.004315993654984016,-0.007333624876763457,-0.0077732172466851435,2.0871437229527534,1.1144040316614874,-0.0019822989504737613,-0.00042867948877332667,0.33848974698144624,1.2932145016727157],[3.3934970794466337,2.2223213845748493,2.5588432069236653,1.8951706231694232,1.1875350741013853,-0.0019489227058874302,-0.020268099347708745,-0.0333874852302512,-0.039617829374328895,-0.041288853591389785,-0.0099813860851063,1.2431337821034505,0.5751855326109544,-0.01975699955901866,4.252230070528978,-0.004912331513948033,-0.0049217456648931995,-0.003938125620502191,-0.0021860776435483806,1.2182399507145945],[2.470905556801087,2.475736897156952,2.3872152980739196,2.0630181374055,1.3827323659196886,0.3426332813433124,-0.013299928072475015,-0.02621515391226692,-0.03092521045583136,-0.03079671782340695,1.9620894906239255,-0.007665596804477571,-0.014525636269039958,2.258257129302478,2.5540243335032904,-0.016752352565795863,-0.005584622070767134,-0.009860850407298975,-0.0046023662026077276,1.8099554868860888],[2.4683046204422383,2.4683046204422383,2.57455922521971,2.2237115261387497,1.2782911402921604,0.2870122631690598,-0.005465690392751175,-0.01696934902748672,-0.02081582158201093,-0.02111497343247911,-0.02845993103788738,1.213192118630197,2.548809994323531,2.2950056018558627,2.056771297516584,-0.022496712560931238,-0.013583199373789955,-0.007941798177634081,0.2480901976820823,2.565574861039336],[2.4683046204422383,2.4683046204422383,2.672953008714742,2.430304839244634,1.6555639948560255,0.3440258907919115,-0.0048983101998350065,-0.006639621136776095,-0.01325295692057949,-0.015802538070707226,3.304713881356792,1.2058381503904365,-0.009917626820442794,1.6706570291742127,-0.0025925331620903483,-0.012743273947561176,-0.0004485707212732168,-0.009734676468911697,1.031522077907508,5.2610881276127754],[2.4683046204422383,2.4683046204422383,2.3748304555268307,2.8080694556281856,1.9913036743428842,0.9930606572806061,0.1293262720004081,-0.006913451281448518,-0.009795247743000895,-0.010942071840607375,0.8278357872244291,3.0984281180499407,-0.02541019816297554,-0.008502920608446997,-0.019639495869061736,0.021049525421025936,-0.0057045488955926125,0.5696201552509763,3.5528757924895147,5.373747118923481],[2.4683046204422383,2.4683046204422383,2.732436837878942,2.4349431104831263,2.4027405273148057,1.9842436342423513,0.9978490721229266,0.14883999667193232,-0.00441869694785264,-0.008562023748128419,-0.009859993258191044,-0.01476371991320073,-0.018735716047183344,-0.019791373989915425,-0.01701645160144504,-0.016433837479105828,1.7292045393376645,3.342602925276291,3.690543017381861,4.909554281255678]],"weights":[[0.1271687829482023,-0.041994026955849514,0.09418583672733956,0.24139308836718845,0.18657979273562533],[-0.07585184311668915,0.26964125573063175,-0.03472864253783607,0.028837840628482152,-0.037995779425868126],[0.05535650036067999,0.2632960243400346,0.2753646211921276,0.09262078430191263,0.2149204887070614],[0.23395916584244017,-0.041233966815200154,0.026230694079548596,0.2508594020147661,0.1653499347699616],[-0.02484292269529969,0.06314987091770262,0.10006018557518252,0.04530759722145161,0.004448799415283806]],"bias":-0.07080360879941792,"outputs":[[58.9060171121465,59.72139735325851,53.90050761107567,54.01891408009197,46.80178809750902,36.761978940165434,27.12476026409619,17.04643285730179,10.237651189694638,7.535159558348798,2.7767044567152457,1.2596945173401384,1.6800835979605586,-0.005355949463657107,-0.0110893925098994,-0.012008799600333762],[68.8357441883617,63.00689900514872,67.09203245927124,63.637898607718725,44.03916481569977,25.77052615558183,13.844317808567515,7.805158254488008,4.3679847169520984,1.6524896264210875,0.8568680411993157,-0.008717951636688514,-0.012172570688836338,-0.012033422851388182,-0.018222416919032727,-0.01762566704200328],[69.20629359267176,76.8616823112818,72.16327730237806,49.10583480895947,27.79584268991481,14.665173006942046,4.8460639077476735,0.7953206884453912,-0.003798548514428677,-0.008240834711442397,-0.015238149182855697,-0.017571499376408128,-0.01839992935911202,-0.01848897764589494,-0.018429476458841715,-0.013886929258095234],[72.04620634427302,68.49664492235088,52.98226159841565,30.139768939683727,12.086629636898566,2.4463356680053168,0.27717535694863327,-0.011242076634377082,-0.018262698991830483,-0.018235760342525262,-0.01830788944272335,-0.018423022152571966,-0.018531168726853862,-0.01846610952327097,-0.01616002135087099,-0.004297893201290031],[59.2513074851226,42.58406761565571,29.375634863668168,12.884440947883169,2.8063324927590294,0.09365586256116899,-0.01220617542217058,-0.01837848518740128,-0.01832423057040387,-0.01834064462945542,-0.018435204895514336,-0.01851800855623517,-0.018438571610217707,-0.015929889100310762,-0.008089559163700254,0.008660671378701204],[32.28366703388713,21.14658196667152,11.897466033036581,3.199217674458772,-0.0003522610563366861,-0.011666649603500001,-0.018495679149991503,-0.018423362134049034,-0.01841088735064115,-0.018493192984079723,-0.01856570143919704,-0.018495224794070675,-0.016233762579990083,-0.008564303041691463,-0.0016633718521562686,0.9185246730408517],[11.89481447996221,7.2909638580696825,2.270496370620624,0.12399289402696707,-0.012974620269377518,-0.01854086215313696,-0.018507026738275718,-0.018520781019558803,-0.01858479439886005,-0.018616862786287682,-0.01856502519938688,-0.017551932442158472,-0.010647098596131251,-0.002096972092617749,0.6502957334837142,1.7416269200320715],[3.237282420475784,0.5731609446669315,-0.006769773332226775,-0.010081853372722903,-0.018526054974905403,-0.018558168128041667,-0.018589090475721708,-0.0186424304976147,-0.018653707577939386,-0.01863825420974931,-0.01849090560187405,-0.010555152054459097,-0.0008349606538584173,0.18867304075412789,0.8406498316601614,2.901002805727807],[1.0324449043155304,-0.0153588305881908,-0.011146127507188573,-0.01708227159098967,-0.0185047218992303,-0.018619547241524023,-0.018750928800046213,-0.018712364425641975,-0.01865274418602832,-0.0185724974355605,-0.01473977030029354,0.19073330706270536,0.38587402464732845,0.9490746786184971,2.0363369911306295,2.7373427123042395],[0.4690857506034538,-0.00426610791542358,-0.011170783656151683,-0.014712783160213414,-0.018547646789899706,-0.018667142808760157,-0.01882370828069475,-0.018846155211031137,-0.018759339199465385,-0.01568688082514965,-0.007010117550829801,0.06799511144518063,0.531974073493294,1.2978754896274936,2.3738715831743185,1.654129243246172],[1.4926489185518208,0.4023330504391694,-0.005363533803851369,-0.01364771828315967,-0.017384826525152306,-0.018639243117299295,-0.018802425464158636,-0.01873714858527238,-0.017963570753085824,-0.013315141744353063,-0.008163532161452002,0.8986999696616051,1.316646986827218,1.1294399780328224,1.1348321029077824,0.8961998732010038],[2.6567709482116,1.0133782702253302,0.10999406435738067,-0.011096172591012197,-0.015406082642815011,-0.018664737136905682,-0.018607268236333265,-0.015553454278966775,-0.012326926297357132,-0.01579590508588656,-0.003289055932515157,1.2742100532208012,1.1153940263301323,-0.0010018372846114147,0.8238894498078339,-0.0017177678743814622],[2.916036249459078,1.7939633086950448,0.42935281510242085,-0.007000513379480429,-0.015012525083640798,-0.017715367856946967,-0.015257485765908848,-0.010822477632349765,-0.01473238573683686,-0.005597532731255069,2.199174594681545,1.0948267202594653,0.41710150197597984,0.9129931911998393,-0.00404255779925109,-0.004472027630482395],[3.259300364202389,2.045203107189268,0.75785439316055,-0.00289348087770856,-0.013942020587772606,-0.017507101513439913,-0.013989990201540323,-0.013391024213484336,-0.0014206790900641998,0.5771097511629808,0.6204252770929082,0.8631216336787237,0.4449153545177644,0.5879655033033944,-0.01154632709444771,-0.004180473979267384],[3.7660406883325637,2.3553730256885386,1.0435292110637597,-0.0018243327159399646,-0.011141959620080064,-0.017580849766177947,-0.013460183721613258,-0.001728323275485173,-0.001873443249154911,0.5042984498030699,1.8251670535946798,1.1792953590216784,0.4545617704985203,-0.0038369136885655977,-0.010614513371379862,0.32092174799897993],[3.9896156536011773,2.9186608677588803,1.4834818850846545,0.25604996070206126,-0.008664966776218606,-0.015018608682096814,-0.005666299291087703,-0.0008314561133312458,0.1479601705548867,0.09221366025686929,0.4370572116374757,0.8731896231374894,-0.008373422206271996,-0.009444546455325728,-0.0033742471739963155,2.1274627660639798]],"inputs":[[2.473033936741904,3.9389317635764365,8.269254306233302,9.822670895066654,6.169125443535962,8.813574994183739,14.562714731781721,10.96926630185267,12.425616293533961,20.84866071655187,17.049161852906128,9.938284694274605,9.541310967292395,3.225942161601371,2.0152584251027337,4.377402722062003,2.657661424495697,0.988322313498634,-0.001623026238737951,-0.0037489143674481287],[5.5374095650829345,13.856821531787958,20.155289635375336,11.066480347463902,6.9402001832968265,20.102919319509958,29.205186190430904,23.32802809029321,16.42852856470546,13.78593666869887,13.062234741617992,5.555036976623544,4.172835956217916,3.6409751521939366,-0.004473863776408362,0.6047989698382007,0.44137694578811804,-0.006578587968591837,-0.01819545653866034,-0.01613652827967627],[15.707540686311852,22.938859153972512,13.842172851355143,13.789966778495087,36.70896001533424,43.35692431977006,29.04433877977994,15.758416258501676,10.98483934541312,8.198900223924088,2.5201054507027996,0.5754476039546691,-0.00507486273631026,-0.008773746614535461,-0.005193565955817019,-0.01741811697634722,-0.022367118727143174,-0.030816662052988483,-0.02867404208567222,-0.009498400478527689],[21.912616079355164,15.927708516016576,21.734070017364907,48.54856295720398,48.39010060423791,35.80583449145781,21.339228431336313,5.53898915264997,-0.009978354312662014,-0.00595953948295385,-0.01663806969740755,-0.018691792948952544,-0.016746989973135833,-0.010996760680487817,-0.018965494140467217,-0.03242544814952466,-0.04132175840215902,-0.04355613188825703,-0.02940047975057774,-0.00013572812926439387],[20.777362179605998,21.335314986206136,47.22032168992617,60.12760895625079,37.35096870337155,20.130430516203216,4.904880676920482,-0.02750572099016116,-0.03503166617223466,-0.028949898937742736,-0.02333356602516673,-0.015508169470073687,-0.013509359473767421,-0.022432491247599433,-0.034132668976659286,-0.045417087713576415,-0.0457479674512652,-0.03844479295096233,-0.026514048645056732,-0.007826046554175682],[23.87579167535966,38.0527764052884,45.337629192960904,42.0626167923412,18.700870937825194,5.400127547178946,-0.03118215452519578,-0.041975653703308295,-0.03715705950885212,-0.02787695731857488,-0.015193368798755963,-0.01271051499712037,-0.02013453644413146,-0.03217355874398825,-0.04591951940642778,-0.045879600496115204,-0.03853156451392167,-0.025581854087061345,-0.0037823714423868083,2.340872917896327],[30.178032881727255,28.16331044619631,28.042814091782763,20.963008172991398,4.384249597382369,-0.029733667423348552,-0.04423679137605303,-0.045773272068903664,-0.03520496659995248,-0.018371120570999506,-0.014082323949108563,-0.02026884372974277,-0.030168957955304082,-0.040010487740180185,-0.04218121364495067,-0.03749561947518556,-0.022456628661170677,-0.005135126945827727,0.9855731840204139,2.6105517675710983],[19.2408130938351,8.712677491157697,13.16275646196356,6.709571711893671,-0.024016815329512168,-0.04036907542805852,-0.046733427304386885,-0.04013418701204259,-0.025577881521914887,-0.02029178885467094,-0.023871741201453297,-0.03239675272540279,-0.03951704701666802,-0.04174241470652624,-0.036795118564702224,-0.019540491460724722,-0.0019366707298817951,1.1259653015234046,1.8765237757051902,2.2371706477933606],[9.710732042643297,0.24319090061575518,3.3447470636124548,-0.0073950436129041055,-0.027293830269009018,-0.038723427008087126,-0.03974398000089161,-0.02916223751047991,-0.02582632524283332,-0.030362550960910572,-0.03932256746999401,-0.04392292762329049,-0.044826975183495606,-0.04133158769678622,-0.02436293563801702,-0.0038687047822070653,1.1408271295609815,1.935559593828069,2.2923574243710547,2.436985452095607],[1.66639559796544,0.5309836098065407,-0.007981970779962572,-0.020178337670458762,-0.02727525360037559,-0.030623682435372813,-0.03193089440741731,-0.03221667278671383,-0.03157280761472661,-0.03852764865033744,-0.04646868250746127,-0.05215738430775619,-0.048563965877562974,-0.03165319938256153,-0.011037007964027045,0.45294693541190834,1.4485314157173095,1.9708198324172816,2.2335560789079723,2.3955111575681074],[2.2207933279649095,0.7106922792457069,-0.004369704799615113,-0.005132004066701331,-0.021321782607297585,-0.02905168274863856,-0.03451716900891261,-0.03629182055759004,-0.041782879694609004,-0.04519029495446654,-0.05155104395881488,-0.03363396388811926,-0.026315578264634622,-0.029525608063596085,-0.004601557724335918,3.5556257595664316,1.1789057546864505,1.5354080410267819,1.9164246358759054,2.230932676515413],[2.020479341876612,0.9122770007981879,1.1171726581151813,0.6894471624887507,-0.011590037954266023,-0.02383558613801328,-0.03325193916284555,-0.04067896318342154,-0.04768401211911443,-0.058627873623975875,-0.058670982686342105,-0.01151945227477473,-0.020912354745277268,-0.020013352965947258,1.7288843051676983,3.3561939773594616,0.767383710252077,1.0028471744370413,1.42909798199185,1.9395366611277391],[2.6418376610341334,2.2965099017604755,1.693224954768334,1.412917925473059,0.027559276597893215,-0.01454035790725718,-0.03086921978244424,-0.04086341735138285,-0.0489180646828559,-0.05714114889615453,-0.05956566057420787,-0.05075127528404735,-0.002305449116890117,1.688655573607875,1.896286980479915,2.5773737808049786,0.2772180212246471,0.5804625197539948,0.8773699553112865,1.554430833176059],[2.841044727590035,2.0759982156354324,2.444767174911811,1.782503695201106,0.5684893742266686,-0.007629313733528128,-0.02533744186511422,-0.03984350380703361,-0.04568424322578288,-0.04818380987098325,-0.04526780927409797,-0.004315993654984016,-0.007333624876763457,-0.0077732172466851435,2.0871437229527534,1.1144040316614874,-0.0019822989504737613,-0.00042867948877332667,0.33848974698144624,1.2932145016727157],[3.3934970794466337,2.2223213845748493,2.5588432069236653,1.8951706231694232,1.1875350741013853,-0.0019489227058874302,-0.020268099347708745,-0.0333874852302512,-0.039617829374328895,-0.041288853591389785,-0.0099813860851063,1.2431337821034505,0.5751855326109544,-0.01975699955901866,4.252230070528978,-0.004912331513948033,-0.0049217456648931995,-0.003938125620502191,-0.0021860776435483806,1.2182399507145945],[2.470905556801087,2.475736897156952,2.3872152980739196,2.0630181374055,1.3827323659196886,0.3426332813433124,-0.013299928072475015,-0.02621515391226692,-0.03092521045583136,-0.03079671782340695,1.9620894906239255,-0.007665596804477571,-0.014525636269039958,2.258257129302478,2.5540243335032904,-0.016752352565795863,-0.005584622070767134,-0.009860850407298975,-0.0046023662026077276,1.8099554868860888],[2.4683046204422383,2.4683046204422383,2.57455922521971,2.2237115261387497,1.2782911402921604,0.2870122631690598,-0.005465690392751175,-0.01696934902748672,-0.02081582158201093,-0.02111497343247911,-0.02845993103788738,1.213192118630197,2.548809994323531,2.2950056018558627,2.056771297516584,-0.022496712560931238,-0.013583199373789955,-0.007941798177634081,0.2480901976820823,2.565574861039336],[2.4683046204422383,2.4683046204422383,2.672953008714742,2.430304839244634,1.6555639948560255,0.3440258907919115,-0.0048983101998350065,-0.006639621136776095,-0.01325295692057949,-0.015802538070707226,3.304713881356792,1.2058381503904365,-0.009917626820442794,1.6706570291742127,-0.0025925331620903483,-0.012743273947561176,-0.0004485707212732168,-0.009734676468911697,1.031522077907508,5.2610881276127754],[2.4683046204422383,2.4683046204422383,2.3748304555268307,2.8080694556281856,1.9913036743428842,0.9930606572806061,0.1293262720004081,-0.006913451281448518,-0.009795247743000895,-0.010942071840607375,0.8278357872244291,3.0984281180499407,-0.02541019816297554,-0.008502920608446997,-0.019639495869061736,0.021049525421025936,-0.0057045488955926125,0.5696201552509763,3.5528757924895147,5.373747118923481],[2.4683046204422383,2.4683046204422383,2.732436837878942,2.4349431104831263,2.4027405273148057,1.9842436342423513,0.9978490721229266,0.14883999667193232,-0.00441869694785264,-0.008562023748128419,-0.009859993258191044,-0.01476371991320073,-0.018735716047183344,-0.019791373989915425,-0.01701645160144504,-0.016433837479105828,1.7292045393376645,3.342602925276291,3.690543017381861,4.909554281255678]]},"dense_params":null},{"activation":{"function":"ReLU"},"layer_type":"Convolutional","conv_params":{"kernel":5,"padding_type":"Valid","padding":0,"stride":1,"data":[[58.9060171121465,59.72139735325851,53.90050761107567,54.01891408009197,46.80178809750902,36.761978940165434,27.12476026409619,17.04643285730179,10.237651189694638,7.535159558348798,2.7767044567152457,1.2596945173401384,1.6800835979605586,-0.005355949463657107,-0.0110893925098994,-0.012008799600333762],[68.8357441883617,63.00689900514872,67.09203245927124,63.637898607718725,44.03916481569977,25.77052615558183,13.844317808567515,7.805158254488008,4.3679847169520984,1.6524896264210875,0.8568680411993157,-0.008717951636688514,-0.012172570688836338,-0.012033422851388182,-0.018222416919032727,-0.01762566704200328],[69.20629359267176,76.8616823112818,72.16327730237806,49.10583480895947,27.79584268991481,14.665173006942046,4.8460639077476735,0.7953206884453912,-0.003798548514428677,-0.008240834711442397,-0.015238149182855697,-0.017571499376408128,-0.01839992935911202,-0.01848897764589494,-0.018429476458841715,-0.013886929258095234],[72.04620634427302,68.49664492235088,52.98226159841565,30.139768939683727,12.086629636898566,2.4463356680053168,0.27717535694863327,-0.011242076634377082,-0.018262698991830483,-0.018235760342525262,-0.01830788944272335,-0.018423022152571966,-0.018531168726853862,-0.01846610952327097,-0.01616002135087099,-0.004297893201290031],[59.2513074851226,42.58406761565571,29.375634863668168,12.884440947883169,2.8063324927590294,0.09365586256116899,-0.01220617542217058,-0.01837848518740128,-0.01832423057040387,-0.01834064462945542,-0.018435204895514336,-0.01851800855623517,-0.018438571610217707,-0.015929889100310762,-0.008089559163700254,0.008660671378701204],[32.28366703388713,21.14658196667152,11.897466033036581,3.199217674458772,-0.0003522610563366861,-0.011666649603500001,-0.018495679149991503,-0.018423362134049034,-0.01841088735064115,-0.018493192984079723,-0.01856570143919704,-0.018495224794070675,-0.016233762579990083,-0.008564303041691463,-0.0016633718521562686,0.9185246730408517],[11.89481447996221,7.2909638580696825,2.270496370620624,0.12399289402696707,-0.012974620269377518,-0.01854086215313696,-0.018507026738275718,-0.018520781019558803,-0.01858479439886005,-0.018616862786287682,-0.01856502519938688,-0.017551932442158472,-0.010647098596131251,-0.002096972092617749,0.6502957334837142,1.7416269200320715],[3.237282420475784,0.5731609446669315,-0.006769773332226775,-0.010081853372722903,-0.018526054974905403,-0.018558168128041667,-0.018589090475721708,-0.0186424304976147,-0.018653707577939386,-0.01863825420974931,-0.01849090560187405,-0.010555152054459097,-0.0008349606538584173,0.18867304075412789,0.8406498316601614,2.901002805727807],[1.0324449043155304,-0.0153588305881908,-0.011146127507188573,-0.01708227159098967,-0.0185047218992303,-0.018619547241524023,-0.018750928800046213,-0.018712364425641975,-0.01865274418602832,-0.0185724974355605,-0.01473977030029354,0.19073330706270536,0.38587402464732845,0.9490746786184971,2.0363369911306295,2.7373427123042395],[0.4690857506034538,-0.00426610791542358,-0.011170783656151683,-0.014712783160213414,-0.018547646789899706,-0.018667142808760157,-0.01882370828069475,-0.018846155211031137,-0.018759339199465385,-0.01568688082514965,-0.007010117550829801,0.06799511144518063,0.531974073493294,1.2978754896274936,2.3738715831743185,1.654129243246172],[1.4926489185518208,0.4023330504391694,-0.005363533803851369,-0.01364771828315967,-0.017384826525152306,-0.018639243117299295,-0.018802425464158636,-0.01873714858527238,-0.017963570753085824,-0.013315141744353063,-0.008163532161452002,0.8986999696616051,1.316646986827218,1.1294399780328224,1.1348321029077824,0.8961998732010038],[2.6567709482116,1.0133782702253302,0.10999406435738067,-0.011096172591012197,-0.015406082642815011,-0.018664737136905682,-0.018607268236333265,-0.015553454278966775,-0.012326926297357132,-0.01579590508588656,-0.003289055932515157,1.2742100532208012,1.1153940263301323,-0.0010018372846114147,0.8238894498078339,-0.0017177678743814622],[2.916036249459078,1.7939633086950448,0.42935281510242085,-0.007000513379480429,-0.015012525083640798,-0.017715367856946967,-0.015257485765908848,-0.010822477632349765,-0.01473238573683686,-0.005597532731255069,2.199174594681545,1.0948267202594653,0.41710150197597984,0.9129931911998393,-0.00404255779925109,-0.004472027630482395],[3.259300364202389,2.045203107189268,0.75785439316055,-0.00289348087770856,-0.013942020587772606,-0.017507101513439913,-0.013989990201540323,-0.013391024213484336,-0.0014206790900641998,0.5771097511629808,0.6204252770929082,0.8631216336787237,0.4449153545177644,0.5879655033033944,-0.01154632709444771,-0.004180473979267384],[3.7660406883325637,2.3553730256885386,1.0435292110637597,-0.0018243327159399646,-0.011141959620080064,-0.017580849766177947,-0.013460183721613258,-0.001728323275485173,-0.001873443249154911,0.5042984498030699,1.8251670535946798,1.1792953590216784,0.4545617704985203,-0.0038369136885655977,-0.010614513371379862,0.32092174799897993],[3.9896156536011773,2.9186608677588803,1.4834818850846545,0.25604996070206126,-0.008664966776218606,-0.015018608682096814,-0.005666299291087703,-0.0008314561133312458,0.1479601705548867,0.09221366025686929,0.4370572116374757,0.8731896231374894,-0.008373422206271996,-0.009444546455325728,-0.0033742471739963155,2.1274627660639798]],"weights":[[0.3839309280113638,0.3941549747442827,0.1026050963112316,0.3133783884320768,0.40621846300670167],[0.059839895009322415,0.10158418237983377,0.06004823229196773,0.04017599241785227,0.3263449269026513],[0.08951635816940112,0.22736742655347525,0.20213323390524773,0.30491033778267734,0.05184730815179566],[0.03573968570450827,0.21663663657000537,0.28526585863783976,0.03978104530005729,0.38486027315186383],[0.11523026218213661,0.2661888080127212,0.09251464610785234,0.3303671127190348,0.05317047029363336]],"bias":0.16425240089748397,"outputs":[[241.54573497624645,189.25570626487738,139.2560926987215,97.256789337354,65.09036021945181,43.771010102522155,28.598676246881244,17.912749080531125,12.800311398937783,8.880596625471972,5.831308262150253,5.195492660215435],[202.78289471128517,152.0119402634699,107.97032808100361,70.61989483704065,42.07468916841349,23.958789302613898,14.156119069779866,9.250563177260162,6.456688602969147,5.011498868552935,4.367669281203681,4.094866298161412],[152.47841481888395,113.98854886257759,75.28153462296545,42.35843310521944,22.517874356156813,11.852995234525062,6.229593454489791,4.337282481559682,4.027964282896441,4.028967030073587,4.069210924024536,4.7109699853632305],[103.8766675776921,71.69115613175273,43.553913943720005,22.08129778418018,9.851878476552058,5.087668310065874,4.132819736858143,4.019663476871251,4.022874469098971,4.042648016761858,4.403247072987143,5.262437224040641],[60.310280835119904,38.11987606362315,21.997641809357525,10.30585317744628,5.147510215979843,4.061735171270922,4.018445361151354,4.031377976690201,4.115523861936307,4.311933315467195,4.936623864200574,6.905832893696655],[29.13205263356101,17.91923354895472,10.020107808021809,5.269214106828577,4.025520699266709,4.018242335001158,4.018561910308343,4.105795093874821,4.247415298429799,4.756320230342515,5.9861924497617345,8.137871117215822],[12.417106583830206,7.836067694097362,4.957729915683575,4.07395349364491,4.017573208292918,4.016863409691225,4.0225040387989575,4.118015359115013,4.7064913744699455,5.456616522336129,7.074411230521893,9.257061147977383],[6.363203917213206,4.427302655751553,4.044381172282067,4.021319729700088,4.01722265621022,4.019903051692573,4.0256059950350105,4.526911508883677,5.268566333836343,5.966280366929973,7.418241028354268,9.590201366838121],[5.911551916628122,4.461107644965222,4.0848088989157265,4.022788902039802,4.021765685182575,4.0225550336794,4.156505758136357,5.4779046604942065,5.87534032584358,6.983959370782579,8.874261247995083,8.590025248659837],[6.479041131503728,4.788423144794967,4.150449019182468,4.028233478881677,4.024042317162813,4.068167948875818,5.11937761290928,5.268377198577173,6.582818647377415,7.513952507615091,7.7044813129758385,7.759422673456735],[7.768471166704369,5.333538374471572,4.237538103911745,4.033625060196105,4.038847139962356,4.292165874647812,4.702135391431641,6.819954989630276,7.344018997049872,7.524909899464875,7.600227304850597,6.966822180190106],[9.209188407971995,6.0727403340078725,4.466744985139135,4.078030651674992,4.053413279883499,4.336730536537863,5.791225157691314,6.311157206162694,7.022622763941409,6.686594855974715,6.604574767468445,6.219299421376521]],"inputs":[[58.9060171121465,59.72139735325851,53.90050761107567,54.01891408009197,46.80178809750902,36.761978940165434,27.12476026409619,17.04643285730179,10.237651189694638,7.535159558348798,2.7767044567152457,1.2596945173401384,1.6800835979605586,-0.005355949463657107,-0.0110893925098994,-0.012008799600333762],[68.8357441883617,63.00689900514872,67.09203245927124,63.637898607718725,44.03916481569977,25.77052615558183,13.844317808567515,7.805158254488008,4.3679847169520984,1.6524896264210875,0.8568680411993157,-0.008717951636688514,-0.012172570688836338,-0.012033422851388182,-0.018222416919032727,-0.01762566704200328],[69.20629359267176,76.8616823112818,72.16327730237806,49.10583480895947,27.79584268991481,14.665173006942046,4.8460639077476735,0.7953206884453912,-0.003798548514428677,-0.008240834711442397,-0.015238149182855697,-0.017571499376408128,-0.01839992935911202,-0.01848897764589494,-0.018429476458841715,-0.013886929258095234],[72.04620634427302,68.49664492235088,52.98226159841565,30.139768939683727,12.086629636898566,2.4463356680053168,0.27717535694863327,-0.011242076634377082,-0.018262698991830483,-0.018235760342525262,-0.01830788944272335,-0.018423022152571966,-0.018531168726853862,-0.01846610952327097,-0.01616002135087099,-0.004297893201290031],[59.2513074851226,42.58406761565571,29.375634863668168,12.884440947883169,2.8063324927590294,0.09365586256116899,-0.01220617542217058,-0.01837848518740128,-0.01832423057040387,-0.01834064462945542,-0.018435204895514336,-0.01851800855623517,-0.018438571610217707,-0.015929889100310762,-0.008089559163700254,0.008660671378701204],[32.28366703388713,21.14658196667152,11.897466033036581,3.199217674458772,-0.0003522610563366861,-0.011666649603500001,-0.018495679149991503,-0.018423362134049034,-0.01841088735064115,-0.018493192984079723,-0.01856570143919704,-0.018495224794070675,-0.016233762579990083,-0.008564303041691463,-0.0016633718521562686,0.9185246730408517],[11.89481447996221,7.2909638580696825,2.270496370620624,0.12399289402696707,-0.012974620269377518,-0.01854086215313696,-0.018507026738275718,-0.018520781019558803,-0.01858479439886005,-0.018616862786287682,-0.01856502519938688,-0.017551932442158472,-0.010647098596131251,-0.002096972092617749,0.6502957334837142,1.7416269200320715],[3.237282420475784,0.5731609446669315,-0.006769773332226775,-0.010081853372722903,-0.018526054974905403,-0.018558168128041667,-0.018589090475721708,-0.0186424304976147,-0.018653707577939386,-0.01863825420974931,-0.01849090560187405,-0.010555152054459097,-0.0008349606538584173,0.18867304075412789,0.8406498316601614,2.901002805727807],[1.0324449043155304,-0.0153588305881908,-0.011146127507188573,-0.01708227159098967,-0.0185047218992303,-0.018619547241524023,-0.018750928800046213,-0.018712364425641975,-0.01865274418602832,-0.0185724974355605,-0.01473977030029354,0.19073330706270536,0.38587402464732845,0.9490746786184971,2.0363369911306295,2.7373427123042395],[0.4690857506034538,-0.00426610791542358,-0.011170783656151683,-0.014712783160213414,-0.018547646789899706,-0.018667142808760157,-0.01882370828069475,-0.018846155211031137,-0.018759339199465385,-0.01568688082514965,-0.007010117550829801,0.06799511144518063,0.531974073493294,1.2978754896274936,2.3738715831743185,1.654129243246172],[1.4926489185518208,0.4023330504391694,-0.005363533803851369,-0.01364771828315967,-0.017384826525152306,-0.018639243117299295,-0.018802425464158636,-0.01873714858527238,-0.017963570753085824,-0.013315141744353063,-0.008163532161452002,0.8986999696616051,1.316646986827218,1.1294399780328224,1.1348321029077824,0.8961998732010038],[2.6567709482116,1.0133782702253302,0.10999406435738067,-0.011096172591012197,-0.015406082642815011,-0.018664737136905682,-0.018607268236333265,-0.015553454278966775,-0.012326926297357132,-0.01579590508588656,-0.003289055932515157,1.2742100532208012,1.1153940263301323,-0.0010018372846114147,0.8238894498078339,-0.0017177678743814622],[2.916036249459078,1.7939633086950448,0.42935281510242085,-0.007000513379480429,-0.015012525083640798,-0.017715367856946967,-0.015257485765908848,-0.010822477632349765,-0.01473238573683686,-0.005597532731255069,2.199174594681545,1.0948267202594653,0.41710150197597984,0.9129931911998393,-0.00404255779925109,-0.004472027630482395],[3.259300364202389,2.045203107189268,0.75785439316055,-0.00289348087770856,-0.013942020587772606,-0.017507101513439913,-0.013989990201540323,-0.013391024213484336,-0.0014206790900641998,0.5771097511629808,0.6204252770929082,0.8631216336787237,0.4449153545177644,0.5879655033033944,-0.01154632709444771,-0.004180473979267384],[3.7660406883325637,2.3553730256885386,1.0435292110637597,-0.0018243327159399646,-0.011141959620080064,-0.017580849766177947,-0.013460183721613258,-0.001728323275485173,-0.001873443249154911,0.5042984498030699,1.8251670535946798,1.1792953590216784,0.4545617704985203,-0.0038369136885655977,-0.010614513371379862,0.32092174799897993],[3.9896156536011773,2.9186608677588803,1.4834818850846545,0.25604996070206126,-0.008664966776218606,-0.015018608682096814,-0.005666299291087703,-0.0008314561133312458,0.1479601705548867,0.09221366025686929,0.4370572116374757,0.8731896231374894,-0.008373422206271996,-0.009444546455325728,-0.0033742471739963155,2.1274627660639798]]},"dense_params":null},{"activation":{"function":"ReLU"},"layer_type":"Convolutional","conv_params":{"kernel":5,"padding_type":"Valid","padding":0,"stride":1,"data":[[241.54573497624645,189.25570626487738,139.2560926987215,97.256789337354,65.09036021945181,43.771010102522155,28.598676246881244,17.912749080531125,12.800311398937783,8.880596625471972,5.831308262150253,5.195492660215435],[202.78289471128517,152.0119402634699,107.97032808100361,70.61989483704065,42.07468916841349,23.958789302613898,14.156119069779866,9.250563177260162,6.456688602969147,5.011498868552935,4.367669281203681,4.094866298161412],[152.47841481888395,113.98854886257759,75.28153462296545,42.35843310521944,22.517874356156813,11.852995234525062,6.229593454489791,4.337282481559682,4.027964282896441,4.028967030073587,4.069210924024536,4.7109699853632305],[103.8766675776921,71.69115613175273,43.553913943720005,22.08129778418018,9.851878476552058,5.087668310065874,4.132819736858143,4.019663476871251,4.022874469098971,4.042648016761858,4.403247072987143,5.262437224040641],[60.310280835119904,38.11987606362315,21.997641809357525,10.30585317744628,5.147510215979843,4.061735171270922,4.018445361151354,4.031377976690201,4.115523861936307,4.311933315467195,4.936623864200574,6.905832893696655],[29.13205263356101,17.91923354895472,10.020107808021809,5.269214106828577,4.025520699266709,4.018242335001158,4.018561910308343,4.105795093874821,4.247415298429799,4.756320230342515,5.9861924497617345,8.137871117215822],[12.417106583830206,7.836067694097362,4.957729915683575,4.07395349364491,4.017573208292918,4.016863409691225,4.0225040387989575,4.118015359115013,4.7064913744699455,5.456616522336129,7.074411230521893,9.257061147977383],[6.363203917213206,4.427302655751553,4.044381172282067,4.021319729700088,4.01722265621022,4.019903051692573,4.0256059950350105,4.526911508883677,5.268566333836343,5.966280366929973,7.418241028354268,9.590201366838121],[5.911551916628122,4.461107644965222,4.0848088989157265,4.022788902039802,4.021765685182575,4.0225550336794,4.156505758136357,5.4779046604942065,5.87534032584358,6.983959370782579,8.874261247995083,8.590025248659837],[6.479041131503728,4.788423144794967,4.150449019182468,4.028233478881677,4.024042317162813,4.068167948875818,5.11937761290928,5.268377198577173,6.582818647377415,7.513952507615091,7.7044813129758385,7.759422673456735],[7.768471166704369,5.333538374471572,4.237538103911745,4.033625060196105,4.038847139962356,4.292165874647812,4.702135391431641,6.819954989630276,7.344018997049872,7.524909899464875,7.600227304850597,6.966822180190106],[9.209188407971995,6.0727403340078725,4.466744985139135,4.078030651674992,4.053413279883499,4.336730536537863,5.791225157691314,6.311157206162694,7.022622763941409,6.686594855974715,6.604574767468445,6.219299421376521]],"weights":[[0.3036518719136984,0.3220199240071773,0.014496402064808712,0.21902673901129216,0.3625441219392606],[0.3696702256582151,0.07354362645238992,0.093028827688097,0.2612637435769158,0.221602056101173],[0.15732100110977648,0.15847115188545552,0.27237206544731113,0.0990916893055479,0.2641849629089443],[0.1368426080291018,0.10801695455698188,0.349051828834484,0.33564258090442695,0.40989131942549445],[0.3159278947570477,0.1830362020001403,0.19670286066531806,0.37836051146333666,0.21132377886473852]],"bias":-0.11520102970942103,"outputs":[[458.9482305224299,313.2527402243191,204.97033416090045,129.67254435495357,82.94401887074174,55.78922161180809,39.904379439586215,32.678722991625406],[315.0163377328316,209.09914793338268,132.00535268194292,79.77799255558045,49.76210990627032,34.49479993131089,27.88364175299025,27.084732154828277],[199.79881076469792,130.07748047788317,79.46020175942785,47.474813655323885,31.50711832414875,25.098789080401406,24.21346282417053,27.535020145931288],[116.78037603971927,74.77688852121632,47.19280416134426,30.695283670163214,23.904925834852335,23.057702872633143,25.418403381778425,30.485596749026282],[65.06632079678837,43.67159492278584,30.534046844687005,23.865857114579704,22.818083568687097,24.382998896120856,28.072397045923104,34.02797622242021],[38.171152680154385,28.577307161819647,23.443593823259903,22.430040644085825,23.703236882252302,26.635997657381367,31.034204679459542,36.00515796734963],[27.537935511795816,22.86284987517862,21.673461868828927,22.880618225335773,25.665155670423257,28.981545863671023,33.04733198385081,37.54190764090617],[25.506949623054638,22.108772540214513,21.949084455842108,24.21972075641112,27.472297625245837,30.694947855666463,34.23942646232277,37.60766076670111]],"inputs":[[241.54573497624645,189.25570626487738,139.2560926987215,97.256789337354,65.09036021945181,43.771010102522155,28.598676246881244,17.912749080531125,12.800311398937783,8.880596625471972,5.831308262150253,5.195492660215435],[202.78289471128517,152.0119402634699,107.97032808100361,70.61989483704065,42.07468916841349,23.958789302613898,14.156119069779866,9.250563177260162,6.456688602969147,5.011498868552935,4.367669281203681,4.094866298161412],[152.47841481888395,113.98854886257759,75.28153462296545,42.35843310521944,22.517874356156813,11.852995234525062,6.229593454489791,4.337282481559682,4.027964282896441,4.028967030073587,4.069210924024536,4.7109699853632305],[103.8766675776921,71.69115613175273,43.553913943720005,22.08129778418018,9.851878476552058,5.087668310065874,4.132819736858143,4.019663476871251,4.022874469098971,4.042648016761858,4.403247072987143,5.262437224040641],[60.310280835119904,38.11987606362315,21.997641809357525,10.30585317744628,5.147510215979843,4.061735171270922,4.018445361151354,4.031377976690201,4.115523861936307,4.311933315467195,4.936623864200574,6.905832893696655],[29.13205263356101,17.91923354895472,10.020107808021809,5.269214106828577,4.025520699266709,4.018242335001158,4.018561910308343,4.105795093874821,4.247415298429799,4.756320230342515,5.9861924497617345,8.137871117215822],[12.417106583830206,7.836067694097362,4.957729915683575,4.07395349364491,4.017573208292918,4.016863409691225,4.0225040387989575,4.118015359115013,4.7064913744699455,5.456616522336129,7.074411230521893,9.257061147977383],[6.363203917213206,4.427302655751553,4.044381172282067,4.021319729700088,4.01722265621022,4.019903051692573,4.0256059950350105,4.526911508883677,5.268566333836343,5.966280366929973,7.418241028354268,9.590201366838121],[5.911551916628122,4.461107644965222,4.0848088989157265,4.022788902039802,4.021765685182575,4.0225550336794,4.156505758136357,5.4779046604942065,5.87534032584358,6.983959370782579,8.874261247995083,8.590025248659837],[6.479041131503728,4.788423144794967,4.150449019182468,4.028233478881677,4.024042317162813,4.068167948875818,5.11937761290928,5.268377198577173,6.582818647377415,7.513952507615091,7.7044813129758385,7.759422673456735],[7.768471166704369,5.333538374471572,4.237538103911745,4.033625060196105,4.038847139962356,4.292165874647812,4.702135391431641,6.819954989630276,7.344018997049872,7.524909899464875,7.600227304850597,6.966822180190106],[9.209188407971995,6.0727403340078725,4.466744985139135,4.078030651674992,4.053413279883499,4.336730536537863,5.791225157691314,6.311157206162694,7.022622763941409,6.686594855974715,6.604574767468445,6.219299421376521]]},"dense_params":null},{"activation":{"function":"Sigmoid"},"layer_type":"Dense","conv_params":null,"dense_params":{"nodes_in":64,"nodes_out":32,"outputs":[2.6817030503929136e-41,1.0,1.2126643684832433e-60,8.428076511609883e-71,1.0,0.9999999003168374,4.629736065336491e-50,1.0,1.0,1.0,1.0,1.0,0.9999999999999971,1.0,0.9999999804681617,1.0,0.9999999999999909,0.9999999999999973,1.4139695531876108e-24,1.0,0.9999999999404461,1.0,0.9999557692380776,1.7716767600931262e-16,0.9999695567549355,1.0,4.5810533251164216e-57,5.756902278222374e-7,2.1957588058701217e-10,1.0,1.313220389077801e-17,1.0],"inputs":[458.9482305224299,313.2527402243191,204.97033416090045,129.67254435495357,82.94401887074174,55.78922161180809,39.904379439586215,32.678722991625406,315.0163377328316,209.09914793338268,132.00535268194292,79.77799255558045,49.76210990627032,34.49479993131089,27.88364175299025,27.084732154828277,199.79881076469792,130.07748047788317,79.46020175942785,47.474813655323885,31.50711832414875,25.098789080401406,24.21346282417053,27.535020145931288,116.78037603971927,74.77688852121632,47.19280416134426,30.695283670163214,23.904925834852335,23.057702872633143,25.418403381778425,30.485596749026282,65.06632079678837,43.67159492278584,30.534046844687005,23.865857114579704,22.818083568687097,24.382998896120856,28.072397045923104,34.02797622242021,38.171152680154385,28.577307161819647,23.443593823259903,22.430040644085825,23.703236882252302,26.635997657381367,31.034204679459542,36.00515796734963,27.537935511795816,22.86284987517862,21.673461868828927,22.880618225335773,25.665155670423257,28.981545863671023,33.04733198385081,37.54190764090617,25.506949623054638,22.108772540214513,21.949084455842108,24.21972075641112,27.472297625245837,30.694947855666463,34.23942646232277,37.60766076670111],"weights":[[-0.193580293874771,-0.05446900486544348,-0.17442565821109732,-0.1774171396130814,0.15176623928511082,0.13927663059660808,-0.08052119043326067,0.03062320586080808,0.220410131156463,-0.13787613877767277,0.061715560777777415,0.11981949045400649,-0.050899172128556006,-0.028321559265401777,0.19818392110753968,-0.08520005859859774,0.18189086105853614,-0.03961106738823403,0.06321305337892236,0.17889884091997396,0.011332225507272487,0.06177305576572944,0.1640095176913791,-0.020835646232980575,0.08079223014256781,0.028685462480485847,-0.11364346927352396,0.014016338537194986,-0.11012364126816988,-0.06464833735822893,-0.18895986085334102,0.1910845498855686],[-0.06371300441445531,-0.006250308396700018,0.11490025603542958,0.045942774353157315,0.0014544557628796187,-0.037941090619307095,0.03505132775257372,0.09588066619334631,0.1564073596733495,0.0612075567786091,0.15737807409474033,-0.11845824502241241,-0.04738386426229583,-0.12691039911257165,-0.13497639877129655,-0.07870571669276652,-0.13339932611285138,-0.044905862331628674,0.17184202978777185,-0.16604984320287447,0.18666027269022017,0.17483985552884895,0.005766682748000459,-0.03527109552282737,-0.1426710508210703,-0.041121641036571,-0.15378609784883462,-0.05793995208400697,0.1591526660669274,0.013980352582656152,-0.0035722302467348878,0.18112629286248158],[-0.11455493537401383,0.14655965149946362,-0.16082888709188997,0.007868879822534789,0.1933922826693255,-0.09587408605977125,-0.1301595193652643,0.05663731386300686,-0.07686413540581055,-0.014394768964475209,0.041120718454876096,0.18205449292584983,0.12333906506216409,-0.05430041740289892,0.034909744058535835,0.13738047061504427,-0.16090745811386756,0.053198785859440725,0.09254656247126511,-0.04931296732810383,-0.08691279166357836,-0.008260398947484022,0.0021850993539334926,0.1745102888454803,-0.010894491416800557,0.13063652339918735,-0.17520876463190352,0.18654386373346418,-0.07616187097470536,0.004685926287938201,0.07934161951008538,-0.10469497420777707],[0.06401060605759934,-0.1806133881434061,-0.09054913365614856,-0.05418687698887067,0.0842053860214582,0.16774329994982648,-0.16640729072653881,-0.02269526192155559,-0.032292385314919285,0.11422873385176348,0.18920321333302015,-0.05956913864336084,0.08490429667558132,0.06995202430615591,0.008523865908511103,0.11116257954070141,-0.019705604937396298,0.005427082140730461,-0.19405964310496646,-0.07560205088975097,-0.09490382050752343,0.06761374863917981,-0.13988545563749225,-0.14998098195244802,-0.14934674974662362,0.1512403471640241,-0.11602426572923459,0.12774303090126796,-0.03898754359575626,0.11022896963596143,0.016126292216997042,-0.09469181600946945],[-0.07687779487146042,0.0981097460023703,0.00961038418484701,-0.09860295957420719,0.02558723340539219,0.05812941759492508,-0.1508837987680077,-0.17223397034854457,-0.1482386718775835,0.06755993278220368,-0.19467794970246688,0.01950759741805523,0.08261615042107029,0.09443080623322597,0.03173753866707765,-0.028860259377580702,-0.037914576377513096,0.1365930095290157,-0.0994054937334083,0.03797574237034602,-0.04148134145708023,0.05969877720077049,0.18982667402890796,-0.16371021142105047,-0.13277312344488132,-0.1501783811044849,-0.18537345566226632,-0.11456776226618709,0.08584033826577141,-0.15361497651362932,0.04665490330778546,0.18455531487619595],[-0.03607116898492304,-0.14293583677952196,