{"layers":[{"nodes_in":2,"nodes_out":8,"outputs":[0.9933425007836979,0.0009769523867139917,0.8615230962701468,6.849734597155894e-6,0.49446250223646476,0.8180871047555074,0.9625542782022036,0.778792370606403],"inputs":[1.0,1.0],"weights":[[3.974721386356396,4.688004311724601,1.5714776024942507,-11.924966692426285,-6.3790896701524495,1.0565237736510857,8.990082061669941,-2.976619597920125],[0.1838214007076592,-10.702289911813192,2.7206488936660933,-4.4586601409151525,14.270316354365182,2.758533754172184,1.3300824182331008,2.369842504262357]],"biases":[0.8467888117121836,-0.9158096112766742,-2.4641281828322965,4.492333031718004,-7.913377580939793,-2.3116166868131645,-7.073466488122333,1.865419810779842],"activation":{"function":"Sigmoid"},"layer_type":"Dense"},{"nodes_in":8,"nodes_out":8,"outputs":[0.0024246874984492307,0.0018678598239094946,0.9721323510429727,0.9987932605644713,0.9705842546933315,2.9957887272342657e-7,0.30770867188159085,0.9299108740847648],"inputs":[0.9933425007836979,0.0009769523867139917,0.8615230962701468,6.849734597155894e-6,0.49446250223646476,0.8180871047555074,0.9625542782022036,0.778792370606403],"weights":[[-1.7913627366432614,0.3068527650971294,0.2799531949921003,-3.3185691145460856,0.18912315151046083,-3.866964107687075,0.2125242234961033,0.6455387744579141],[-5.66842138160096,-8.47372923657391,0.8771759097007978,11.823985179252597,0.09693577896048695,-0.7422501738092759,1.337387503403696,1.2271832964513698],[-0.3050152155117235,0.41005761524996986,-0.6952849880952652,2.183052365032846,-0.7880411696378142,-2.496395381759821,-1.42055225891169,-0.9808099370527121],[10.432374959777277,2.1103987802174675,1.1239702458851661,11.56612769258711,1.462788032155077,11.94443771319984,1.6697685993921316,1.3759373676030173],[2.5145843323873542,-8.281996075049575,5.709720690640831,11.571601401696077,6.360521618348296,-2.3212135539004457,0.7491362708676946,3.5145688183084487],[-1.5712384133129715,1.8620442916679267,-0.7931186690437486,1.1411798146073426,-0.8040437660168729,-2.8507775935627513,-1.4506342078876548,-0.9868882761010649],[-3.669508714433142,-8.673352486593055,1.1839717407211094,10.048427358192876,1.0195988365478894,-2.1250828641273283,0.599004800806206,1.1810312229096764],[0.7809008175651392,2.9645450490621412,-0.2516714638495946,-4.284019395136817,0.1955655978562463,-1.9274542618060815,-0.6186329064117584,-0.16790523812815394]],"biases":[-1.0059603489901578,1.6807171537434826,0.754035616845561,-4.868381812083721,0.36632919575794165,-2.0017906775673264,0.9220951371282102,0.8513568189538894],"activation":{"function":"Sigmoid"},"layer_type":"Dense"},{"nodes_in":8,"nodes_out":1,"outputs":[0.0001463052123146018],"inputs":[0.0024246874984492307,0.0018678598239094946,0.9721323510429727,0.9987932605644713,0.9705842546933315,2.9957887272342657e-7,0.30770867188159085,0.9299108740847648],"weights":[[9.19365034368555],[-17.149186101854614],[4.951432004366011],[-22.95062200564447],[5.434761222095778],[-9.85531857415658],[2.485440462165193],[3.442943117904996]],"biases":[0.04823804357866449],"activation":{"function":"Sigmoid"},"layer_type":"Dense"}],"learning_rate":0.007,"batch_size":2,"cost":0.00783393175410076,"print_progress":false}