{"layers":[{"nodes_in":2,"nodes_out":5,"outputs":[0.9999999320198794,0.9999798564084651,0.00022108822930866964,0.7622441762943979,5.2969313184121675e-6],"inputs":[0.9642857142857143,0.9642857142857143],"weights":[[10.44128649196381,14.654127666799456,-23.5057020127195,-8.754075951877208,-28.228443176965172],[18.261167151282063,10.716515684514581,15.538990023701047,5.692229321365177,-6.20084798926308]],"biases":[-11.173315564709137,-13.651944731578944,-0.7345410349634958,4.1175177146172235,21.05129601990717],"activation":{"function":"Sigmoid"},"layer_type":"Dense"},{"nodes_in":5,"nodes_out":5,"outputs":[0.9999999962130939,0.6100464184163643,2.3338162500419856e-7,0.268006719764259,2.7595531281384374e-6],"inputs":[0.9999999320198794,0.9999798564084651,0.00022108822930866964,0.7622441762943979,5.2969313184121675e-6],"weights":[[20.139862834019365,-7.788574786309866,31.818251601918035,29.042195834193905,1.0302851629878857],[14.592713878385654,2.8844841754682657,-16.270403851355077,-6.230493815505198,-9.397518837723947],[-2.9684389663792783,27.37256689816045,13.678162105430443,-23.48562937200956,7.944806049740618],[3.5379109330513345,0.006762528026895468,-25.907720290331262,-4.461745048973029,-2.525748875705238],[12.112191289594541,-22.737051099440986,10.035039720047468,17.27285374030863,-1.3651517219392588]],"biases":[-18.036724773254914,5.340569511466859,-11.07383226941063,-20.41054474610664,-2.509906497586228],"activation":{"function":"Sigmoid"},"layer_type":"Dense"},{"nodes_in":5,"nodes_out":1,"outputs":[0.0058102796150972845],"inputs":[0.9999999962130939,0.6100464184163643,2.3338162500419856e-7,0.268006719764259,2.7595531281384374e-6],"weights":[[23.145682064747742],[-27.117489728852085],[5.6290155818092895],[-19.165326958604147],[-31.02230047574178]],"biases":[-6.608533143999804],"activation":{"function":"Sigmoid"},"layer_type":"Dense"}],"learning_rate":0.01,"batch_size":2,"cost":0.013056149870332818,"print_progress":false}