{"layers":[{"nodes_in":2,"nodes_out":10,"outputs":[0.9992971701544631,0.9999965335202646,1.3357790944766127e-7,0.00684520136370689,0.9750656002754716,7.563817342610306e-9,0.0007507611268299114,0.9999999977394147,0.9999055989610333,0.999900971990461],"inputs":[1.0,1.0],"weights":[[30.818806198248605,22.455391090721424,-23.159491261220747,-27.377126067069348,-0.2914139849259551,-28.568730152531444,18.95891028607912,1.8419898400898367,1.3542003573156574,17.54456587039578],[8.371118860528213,2.7173331847493283,1.364617521236937,20.11688089479461,19.142752219385784,-15.464461646660476,-24.258078355875966,24.006751519761455,2.7068435437531897,13.634399799744692]],"biases":[-31.930232399785087,-12.60035677754821,5.966292935600654,2.282906506455816,-15.18508184848958,25.333301972060436,-1.8945039173724587,-5.941099242267003,5.2068201723064975,-21.958956879844294],"activation":{"function":"Sigmoid"},"layer_type":"Dense"},{"nodes_in":10,"nodes_out":10,"outputs":[0.000056901742929614925,0.9999051097392035,0.9992484247728631,7.131676078274257e-11,0.9999339872757492,0.000031365408027588,0.9999878041504817,1.2329461278523417e-6,0.4114325027962141,0.999999999999686],"inputs":[0.9992971701544631,0.9999965335202646,1.3357790944766127e-7,0.00684520136370689,0.9750656002754716,7.563817342610306e-9,0.0007507611268299114,0.9999999977394147,0.9999055989610333,0.999900971990461],"weights":[[0.37636463614499344,0.09852513869501676,-14.178248317024664,4.722774471339123,0.06854090129724011,-3.589506699043896,-2.1378069441241454,13.777240152308217,-2.289442498469975,7.373353528644603],[-15.911266477162622,0.44474001844029626,4.883301343716321,1.6017622185349554,0.33907669169102533,-12.354360131456437,13.86809133729251,-1.9754411318986909,-2.474946936524157,2.8674803202158667],[18.793168927948635,0.9542155058820964,-0.3549677824187504,1.1700994658161763,0.9558587274405729,7.398037643127068,-27.451924796193577,0.6885823059597006,1.726450593639547,-1.9738151457437145],[-8.022907579818805,0.19292010188296593,10.36934305192825,-8.119081817428293,0.5314554839403051,1.0015497221088772,12.747810018627376,-7.4441013255760895,-2.0656022290948104,-22.10560558650835],[-1.3812120244101387,0.9407416124386418,11.721601054229982,-6.860939620133597,1.2266488104466429,-2.721335257598692,-8.941974997597029,-5.088202585063549,0.4047047086280766,11.9578294284605],[-6.805215499060887,1.3080196615403898,1.4195148627958865,1.973933206642973,1.4081922904098618,-7.697300980506207,-12.03118269277201,-5.114205316801631,-23.68230568927487,-11.76089459004828],[6.7484017106431855,0.2790153194391233,-12.595999548687205,15.041169515349003,0.1693775075092956,5.170654797839378,-10.572431315832054,10.186633918648395,18.713771719791488,10.854339940888595],[10.549796887980293,1.735080515269924,11.179621278560735,-10.461648955644641,1.788645594455905,-10.733570983309594,3.246673397292814,-12.241220557948864,-2.592828848280312,-12.33752466907595],[-0.995761345789569,1.951358319557924,-8.085174633364499,-3.9309937728837463,2.1254334286315055,9.519825689217617,-3.8178306631448584,-0.7069952294903096,-6.338110369976639,1.705734413692418],[-1.4489492117732272,1.520777060029734,9.38606875786884,-5.018325184681082,1.6107406532036264,-0.8193532734377473,14.028865071443093,-7.105159496950118,18.61822948357664,18.299548918543213]],"biases":[-0.9477184182400922,2.593804165416236,-7.493616330375381,-3.54085126512304,2.4937409833919753,10.248185446471272,-5.234323096910526,-0.34098080213797555,-5.675843536664162,-0.628581083475372],"activation":{"function":"Sigmoid"},"layer_type":"Dense"},{"nodes_in":10,"nodes_out":1,"outputs":[0.6497924444318917],"inputs":[0.000056901742929614925,0.9999051097392035,0.9992484247728631,7.131676078274257e-11,0.9999339872757492,0.000031365408027588,0.9999878041504817,1.2329461278523417e-6,0.4114325027962141,0.999999999999686],"weights":[[-24.950402960132763],[-0.7154205502239348],[-13.242479583942982],[-29.192181645889058],[-0.8759601621052909],[22.053008326913556],[11.629188194264819],[-12.251787824282944],[-28.765099860238976],[16.29202520230581]],"biases":[-0.6435225456453586],"activation":{"function":"Sigmoid"},"layer_type":"Dense"}],"learning_rate":0.02,"batch_size":2,"cost":0.022610415750066476,"print_progress":false}